-0.163662 -0.0294719 -0.282376 -0.365088 -0.304403 -0.145924 -0.112661 -0.290706 -0.30919 -0.247527 -0.171121 -0.119435 -0.291987 -0.255683 -0.125085 -0.0702147 0.0826127 -0.0221357 0.0472558 0.0692197 0.100319 0.355029 0.425883 0.368845 0.300244 0.235947 0.142532 -0.187862 -0.243211 -0.017586 0.0829241 0.0143918 -0.222344 -0.0390423 0.228293 0.303984 0.186168 -0.0737916 0.108347 0.337851 0.367011 0.320837 -0.00510703 0.104032 0.212701 0.221607 0.134047 -0.123902 -0.0270053 -0.0657034 -0.0608014 -0.168623 0.041197 -0.0204597 -0.140325 -0.128402 -0.230719 -0.234971 -0.0523323 -0.087359 -0.16622 -0.234746 -0.176504 0.0793493 0.0314031 -0.133174 -0.125555 -0.0843444 0.182956 0.0735014 0.0219379 -0.0337804 -0.0326795 0.192844 0.190324 0.112677 0.0546328 0.0362271 -0.343686 0.0467805 -0.0209973 -0.0063631 -0.00940121 0.0901941 -0.0778558 -0.189499 -0.190802 -0.137446 -0.0150603 -0.184122 -0.267725 -0.272093 -0.167776 -0.0789762 -0.103955 -0.21385 -0.16916 -0.0362378 0.077674 0.028512 0.00317131 0.0239411 0.13851 0.126633 0.414298 -0.153807 -0.174425 -0.204575 -0.184141 -0.27577 -0.207634 -0.0815223 0.102103 0.118455 -0.070031 -0.112457 0.139679 0.275621 0.221133 0.076367 0.039863 0.200866 0.337561 0.36639 0.189914 -0.0424326 0.17364 0.281757 0.217445 0.142442 0.317094 -0.141538 -0.0436853 -0.0761092 -0.255946 -0.337327 0.0769913 0.263091 0.235436 -0.0351907 -0.151752 0.350847 0.389115 0.408623 0.113506 -0.12908 0.309663 0.343794 0.250246 0.0202432 -0.0894957 0.149997 0.138213 0.0129503 -0.121246 -0.215944 -0.014975 -0.0375633 0.0516258 0.0281931 0.0468349 -0.00847716 0.031555 -0.010456 0.0839095 0.0272723 -0.0267623 -0.0589984 -0.0615486 0.0486219 0.034759 0.00826995 -0.0458154 -0.0279414 -0.0104287 0.0385077 -0.0249991 0.051966 0.0751285 0.00555216 0.0297769 -0.00317829 -0.0276413 0.00265919 -0.0185424 -0.0177192 0.0644612 -0.0523502 -0.04453 -0.0697261 0.0231423 0.0180901 0.0752541 -0.022872 -0.0242138 0.014426 0.0557159 -0.0301869 -0.0190017 -0.0356764 0.02404 0.0688712 -0.0136978 0.0397915 -0.0143806 0.012236 0.0119466 -0.0373564 0.0100318 0.0243187 0.00126085 -0.0586938 0.0313241 0.01988 0.0310091 0.0179718 -0.067342 -0.021039 0.0442421 -0.0156077 -0.0266047 -0.0728222 -0.0665487 0.0251999 0.0435099 -0.019954 -0.018062 -0.00292476 0.0422695 -0.00330753 0.048417 0.0314152 0.0343628 0.0392689 -0.0161079 0.066755 -0.0269179 -0.0166063 0.0170861 0.0228683 0.00750987 0.027236 -0.0450655 -0.0338885 -0.0168631 0.00593649 -0.00736774 -0.0230135 0.0427516 0.00963814 -0.00133925 0.0141943 -0.0283836 0.0103006 0.0276959 0.0145652 0.0207829 0.00916336 -0.044375 -0.0119427 0.0209858 0.00721247 0.0690767 -0.0240578 0.0201374 -0.0339574 0.046801 0.0505898 0.0406933 -0.046951 0.0158715 0.0300593 -0.0306922 -0.0529006 -0.0727224 -0.0650312 0.0158912 -0.000545188 0.0111479 0.0238336 -0.0043008 0.00225251 0.0186678 -0.052588 -0.0310301 -0.0787373 -0.00231276 0.0316127 -0.0169439 -0.0208332 -0.0596137 0.0583582 0.0171681 0.0462582 0.0567047 -0.0438228 -0.0255999 -0.0118053 -0.0144465 0.00369026 -0.0850328 -0.0429497 0.0684592 -0.00110882 0.0645775 0.0026355 0.0323782 -0.0185174 -0.0184867 0.00258303 -0.00798058 0.0437615 0.0253115 -0.0185901 -0.0309346 -0.00500978 0.0309268 0.00354337 0.0540321 0.00942993 -0.0125844 -0.00905863 0.0276363 0.0442614 0.0456401 0.0552113 0.0142182 -0.0439913 0.0308167 0.0274078 -0.0118294 0.0492359 0.0171177 -0.0228759 0.013671 0.00551658 0.0140735 0.0235884 0.00168293 0.00670383 -0.0585813 0.027161 0.0398833 -0.0565437 0.0146399 -0.0237025 0.00328357 -0.0286244 -0.0031333 0.0157027 0.0184638 -0.0221209 0.00282365 -0.0218436 0.0890993 0.0119709 -0.0232395 0.0586375 -0.0597098 -0.00737859 0.035857 0.0655155 -0.063259 -0.0561524 0.0199556 0.0303751 -0.0228598 -0.0743524 -0.0350092 -0.0197963 -0.033812 0.0251059 -0.00830057 0.0487511 -0.0298332 0.0247995 0.0410931 -0.0373731 0.00370755 -0.023977 0.0417994 0.00442397 -0.0123475 -0.0236455 -0.034624 0.00870421 0.0784001 -0.0112257 0.0340433 0.0431527 0.0412988 0.00446015 -0.0193993 -0.0440441 0.000470556 0.0373614 0.0637202 0.0381988 -0.0385976 -0.00647084 -0.0365929 0.00635285 0.00590381 -0.0489343 -0.0653073 -0.0400342 -0.0372016 0.0329667 -0.00130516 0.0558633 -0.00702279 -0.0285309 0.0539744 -0.00459247 0.0134935 -0.0408185 -0.0670894 -0.0579021 0.00333162 -0.0536773 -0.0634114 0.0061603 0.029366 0.0617041 0.0326239 -0.0322746 0.000244755 0.0383159 0.102514 0.108478 0.0572753 0.0196683 0.0148581 -0.0544208 0.0482762 0.0790965 -0.00242592 0.040583 -0.00392657 -0.0394166 0.0421872 -0.0915152 -0.0607177 0.0334385 0.0102111 -0.054938 -0.0713686 0.0353703 0.0397084 0.0221134 -0.0142858 -0.0249073 0.0363668 0.0431678 0.0379364 0.115425 -0.0145681 0.0442023 -0.0352818 -0.0427317 0.0540794 0.0727918 0.0682868 -0.0255771 0.046958 0.0749751 0.0599277 0.0214438 -0.0574019 -0.0245887 0.0136254 0.00301582 0.031022 0.0231879 0.0941655 0.00799777 -0.0494362 -0.0136696 0.042347 0.0484982 0.0158927 -0.0883692 -0.0533502 -0.0390294 -0.0512952 0.0318878 -0.0219724 0.0760301 -0.0104797 -0.0454139 0.0189123 -0.00943033 0.0105493 -0.0426135 -0.0489013 0.0124143 -0.0145064 0.0235756 0.00424447 -0.0436218 0.0679349 0.0149076 -0.0334675 0.0746234 0.00100419 0.0596229 0.0745924 0.0124706 0.021778 -0.0411987 -0.00014966 -0.0486776 -0.0375987 0.0231145 0.0519744 -0.0305554 0.051027 -0.00420752 -0.00749933 0.0154658 -0.0122699 0.0531748 -0.0401674 -0.0410075 -0.00463974 -0.00797476 -0.00988878 -0.00360086 0.0518757 -0.00219293 6.76785e-05 -0.0287929 0.0335223 -0.0383744 -0.018865 0.0432787 0.0265071 -0.0558259 -0.022676 -0.0207056 0.0795432 0.0614602 -0.0123168 0.0388969 0.0321337 0.0374747 -0.0556562 -0.033955 0.0187048 0.0605143 0.0303345 -0.0766785 0.031005 -0.0342301 -0.046998 -0.0303686 -0.048011 0.00313801 -0.0163766 0.00241385 -0.0410791 0.0238603 0.0215041 -0.037184 -0.0049602 -0.0256011 -0.0133009 -0.0361378 0.0101136 -0.0689689 -0.00760494 0.0329631 -0.00377883 0.0346293 -0.0366224 0.0700926 0.00666001 -0.00941073 0.0454113 0.046598 0.0369077 0.0129192 0.082668 0.0144158 -0.0662114 -0.00867575 -0.0229495 -0.0561061 0.0635604 -0.00620026 -0.0938396 -0.0325128 -0.0257884 -0.0210171 -0.0704894 -0.08111 0.00891864 0.0435279 -0.0305346 -0.00449868 -0.0763338 0.0643705 0.0420619 0.0107017 0.0162203 -0.0195501 -0.00361419 0.0835545 -4.87862e-05 -0.0464955 -0.0755468 -0.0403957 0.0538429 -0.0232872 -0.00941586 -0.055342 -0.0911412 -0.0381482 -0.0161408 -0.0443597 -0.0711717 -0.0365313 -0.0574913 -0.0515359 -0.106566 -0.00533464 0.0193823 0.0195215 -0.0114079 -0.0111616 0.0432851 0.0566505 0.0448783 0.0319187 0.0424981 0.069639 0.0223368 -0.0259705 -0.00727712 0.0129657 0.0773585 0.10113 0.0530107 -0.00990342 -0.0121242 0.0328973 0.0542857 -0.0156743 -0.0381957 -0.00129038 -0.02259 -0.0366573 -0.0547685 -0.000910745 0.000824832 -0.0191704 -0.0623362 -0.0748604 -0.0293468 -0.0575451 -0.0570275 0.0276784 0.00730225 -0.018959 0.00770729 -0.0790169 0.0184366 -0.0588843 -0.0330844 0.0107808 -0.048794 -0.0407492 -0.0722782 -0.0232706 -0.0293865 -0.0114852 -0.0145405 0.0458176 0.0150931 -0.0752932 0.0352627 0.0906588 0.0685883 0.0772343 0.054506 -0.101188 0.0104173 0.00170644 0.000385876 0.0308746 -0.104638 -0.0943726 -0.0788746 -0.0406934 -0.0217545 -0.0193183 0.0141654 -0.0158117 -0.035036 0.0248849 0.0240233 0.0290536 0.0755159 0.0483291 0.0463072 -0.0265151 0.0833604 0.0432664 0.0744231 0.00289053 0.0868166 0.072896 0.0150563 0.0588775 -0.015294 -0.00360459 0.0462467 0.0375857 0.016255 0.0301051 -0.0158367 -0.0586511 -0.017577 -0.0790828 0.0511914 -0.0720329 -0.115154 -0.0651345 -0.131784 -0.0752665 -0.0113366 -4.59584e-05 -0.018096 -0.0270346 -0.0234232 0.0768061 0.0696793 0.011808 0.0770927 0.0489066 0.0959665 0.0355647 0.0154273 0.0723413 0.0593801 -0.0621853 0.0372495 -0.0319152 -0.05873 0.043597 0.0446906 -0.0752667 -0.118539 -0.114026 -0.0953788 -0.0101967 -0.0192962 -0.0263777 -0.0669533 -0.00968955 -0.00264506 0.0227819 0.0221436 0.0397322 0.032255 0.0567072 0.00356107 0.0304785 0.073183 0.0346703 0.0343253 0.00714136 0.0667132 0.0878017 0.0802451 0.0235093 -0.0387507 -0.0493521 -0.125052 -0.135257 0.031854 -0.0283686 -0.0857842 -0.0710721 -0.0918819 -0.0405464 -0.020367 0.00034696 -0.0378473 -0.0237661 -0.0203979 -0.0267054 -0.0726531 -0.0761289 -0.0178835 0.0175431 -0.0586843 -0.0333034 0.0293017 -0.0047357 0.0512912 0.0345904 0.0774068 0.0996462 0.0492049 -0.0662597 -0.0117387 0.0422508 -0.00846004 -0.00652883 -0.0818991 0.0745179 -0.0145908 0.0545599 -0.0348996 0.0790336 0.0628385 -0.0277044 0.0368696 -0.0382568 0.00048439 0.018985 0.0147987 0.0609401 0.0166026 0.0672404 0.0275577 -0.0518156 -0.0427762 0.00726216 0.0073812 -0.0513036 0.0181971 -0.078723 -0.0139138 -0.0135741 0.0180453 0.0425004 0.0434851 -0.0265019 -0.0073435 -0.00816676 0.0562305 0.019102 0.00719016 0.0130477 0.0379948 0.0442408 -0.0321926 -0.0603046 -0.0350883 0.0439809 0.0336292 -0.0974211 -0.0619313 -0.0522445 0.00175231 -0.0165621 -0.027365 0.0175538 0.0592059 -0.0172666 -0.051469 -0.0656836 0.00669154 0.0181611 -0.0316804 -0.021692 -0.0503791 -0.0624794 0.0250576 -0.0482381 -0.0169549 0.118245 0.0855908 -0.0265657 0.0650347 0.0938543 0.122592 -0.00593455 -0.00615739 0.00976931 -0.0349101 -0.0355751 -0.014021 -0.0255667 -0.0961405 -0.000633986 -0.00558688 0.0205662 -0.0111999 -0.0563561 -0.0164374 -0.0400979 -0.0266207 0.0314846 -0.0275662 -0.0462541 0.0292767 0.11829 0.00208699 0.059417 0.0683358 0.138344 0.140655 0.0350736 -0.048731 -0.0371007 -0.00204273 -0.0244124 -0.00566679 -0.0151134 0.0123181 -0.0658418 -0.0423465 -0.0305676 -0.0315013 -0.037603 -0.087023 0.0239653 0.0790893 0.0551662 0.0377313 0.0429442 0.00409245 0.00831321 -0.0293959 0.0162775 -0.0191864 0.0103142 -0.00174534 -0.00883269 0.034989 -0.0317215 -0.0342157 0.0198574 0.0563776 0.0439522 0.037316 -0.0271027 -0.0411027 -0.0500319 0.0357911 0.0287703 -0.0614884 -0.0385474 -0.0417309 0.035298 -0.034618 0.0104418 -0.0309534 0.0339879 0.0256237 -0.0160759 -0.00942084 0.039301 -0.0288128 0.00197617 0.0828769 0.00659113 -0.0521427 -0.0455075 -0.0573987 0.0255284 0.0269236 0.0256245 -0.0242572 0.0219991 -0.0356368 0.0497096 0.0161387 -0.00348688 -0.0201685 -0.0458382 0.0488436 0.0580328 0.022339 -0.0289036 -0.043785 0.0254098 -0.00114403 -0.0081693 0.0160201 0.0206066 -0.0404321 -0.0496782 -0.0330586 -0.0228556 0.0129202 -0.00772201 0.0169636 0.00948388 0.0220459 0.0120133 -0.0409028 0.0355218 0.0125068 0.0432164 -0.0227053 0.015176 0.0229281 0.0212274 0.0105776 -0.0454273 -0.0722908 0.00927399 -0.00999616 -0.0501442 -0.0359133 -0.0515029 -0.0229124 0.0233918 -0.0159118 0.0835705 0.0304411 -0.0332063 -0.00392648 0.0398459 0.0350265 -0.0525134 -0.0471663 0.00670726 0.0181278 0.0193741 -0.00169937 0.0430555 0.0383925 -0.0119447 0.0773306 0.0569043 -0.0530201 -0.054 -0.0332053 -0.0258198 -0.0614923 -0.0197239 -0.0506775 0.0173724 0.00478431 0.0485042 -0.0430549 -0.0520161 -0.0564065 0.020184 0.0251827 -0.0583826 -0.0781752 0.0143912 0.0106664 0.0163912 -0.00562638 0.0188374 -0.0340708 0.0617053 0.098857 0.0347683 0.0230358 0.0284184 0.0552013 0.0699029 -0.0233895 -0.0280252 -0.120759 0.00584088 -0.011936 -0.0355717 -0.011901 -0.0166877 0.00334258 -0.0372155 -0.0362487 -0.0337654 0.0273848 -0.00467662 0.0463054 -0.0513972 0.0698024 0.0386459 0.00367214 0.041918 0.0419291 0.110282 0.086756 0.0128963 0.0369606 0.0317685 0.0808147 0.0222906 0.0499684 -0.009938 0.0782673 0.00185895 -0.00449019 -0.044473 0.0630395 0.00139889 -0.0381962 0.0259096 -0.0060139 -0.0147302 0.0229221 -0.0278855 0.0584303 0.0336448 -0.0370427 -0.0206525 -0.0744161 0.00775489 0.0877803 0.0600079 -0.0609279 -0.0372419 0.0513988 -0.00746053 0.0138298 0.0260368 -0.00824303 -0.0580126 -0.0512218 -0.0679603 -0.0603457 -0.0507521 -0.0125368 0.0503054 0.027264 0.0223557 0.0527766 -0.0112121 -0.016366 0.0136965 0.0368552 0.0177759 -0.0346101 -0.0590781 0.0333765 0.0828785 0.00353256 -0.0274408 -0.0952602 0.00756476 -0.0717175 -0.0931125 -0.0312151 0.0181584 0.0259568 -0.0238319 -0.0601212 0.0611948 -0.00264822 0.0423772 -0.00766088 0.0264377 0.0712379 -0.0276293 0.0117019 0.0520376 0.0952097 0.00322781 -0.0606327 -0.0288186 -0.00617769 0.0600047 0.0353927 -0.0161644 0.0496147 0.0280517 -0.00189603 0.00456583 -0.0397429 0.0291319 -0.000385846 -0.0160778 -0.0154824 0.0306165 -0.0178679 -0.0111608 -0.122463 -0.0252991 0.100785 0.0321779 -0.0615277 -0.0986842 -0.00529473 0.0782486 0.0194541 -0.00168454 -0.00334008 0.0204425 0.104822 0.0875504 0.0328784 0.13545 0.035906 0.0637567 -0.0124589 -0.022285 0.0251767 -0.0367067 0.0270608 -0.0494655 -0.00485839 -0.0371896 -0.127376 0.068797 0.0684962 0.021379 -0.0798887 -0.103188 0.0634402 0.0604298 0.0178913 -0.0241578 -0.0246013 0.0135154 0.0259019 0.0084012 -0.00283429 0.0549794 0.0942877 -0.0183979 -0.0363288 -0.0406637 0.014942 0.00580694 -0.0785052 -0.117011 -0.128917 -0.127773 -0.0638257 -0.0333763 -0.110784 -0.127669 -0.124029 -0.14303 -0.0336191 -0.0348683 0.0168217 0.0171273 0.00962204 0.00149479 -0.00787467 -0.0267754 -0.0151127 -0.0208346 0.0383437 0.0945917 0.0555403 0.0088872 0.00624253 -0.0186165 0.0743686 0.0674312 0.0468592 0.0539999 -0.00479506 0.0174655 0.0369509 0.0419406 -0.0197843 -0.0634042 -0.0779389 -0.0758544 -0.131437 -0.0298948 0.0065109 0.0260874 0.0326246 0.022401 0.0244349 -0.0399289 -0.0580973 0.0150722 0.0248367 -0.00858291 -0.00747807 -0.07747 -0.0407426 -0.0605731 -0.000318127 -0.0341747 -0.0256184 -0.0400255 -0.0645309 -0.0427144 0.015644 -0.0429528 0.00597405 0.0474672 0.0310945 -0.026959 0.00861596 0.0452132 0.0240601 0.0696654 -0.0623476 -0.0377042 -0.068644 -0.088526 -0.0398546 -0.0105606 -0.0641334 -0.0394482 0.023301 -0.0258716 -0.00562223 -0.0424434 0.0161518 -0.0311542 -0.0557642 0.109845 0.0610809 0.0601195 0.0891199 0.0871563 -0.00519339 0.0698287 0.0790848 0.0274862 0.0169308 0.0696813 0.0488518 0.0990291 0.0806322 0.0197912 0.00383144 0.052363 0.00871413 -0.0145589 0.0730559 -0.0649422 -0.0372749 -0.0833834 -0.0626643 -0.0267825 -0.115807 -0.113983 -0.161484 -0.153804 -0.0714443 0.0441871 -0.0136091 0.0133605 0.039359 -0.0531613 0.0670514 0.0581438 0.108875 0.0706389 0.0612962 0.0308056 0.0300242 -0.0145102 0.011044 0.0569076 0.0305939 0.00436077 -0.0262061 -0.0622165 0.00646651 -0.12183 -0.115691 -0.159733 -0.166469 -0.126871 0.125138 0.0740242 0.0799458 0.0543964 0.101153 0.0568499 0.0343707 0.0968103 0.0300147 0.0867382 0.111083 0.022943 0.0586836 0.0175246 -0.0027423 0.0798868 0.0191416 -0.129631 -0.0889 -0.0861821 -0.0153774 -0.0131493 -0.100699 -0.0714905 -0.0469349 0.0111264 -0.0119986 -0.0489584 -0.00152278 -0.064728 -0.0785644 0.00613305 -0.00951473 0.0142497 -0.0296022 -0.0315483 0.0012192 0.0340599 0.0951021 0.0838281 -0.0215477 -0.00431917 0.052303 0.0294105 0.0567883 0.0400091 -0.0655922 -0.0574402 -0.0687929 0.00451885 0.016725 0.00242756 0.0659441 0.0870907 0.0659771 0.0932594 -0.0217958 0.0126897 0.0413706 0.0126033 0.04039 0.0548444 0.0167721 0.0731941 0.0361127 0.0755769 -0.0601882 -0.0844162 -0.0273846 -0.0464446 -0.041175 -0.00702655 -0.0757305 -0.0494654 -0.00244338 0.0261856 0.0626357 0.0242873 0.0831012 0.0730271 0.00669301 0.0362772 0.0443056 0.0527933 0.0642758 0.0780604 -0.0212917 -0.00531916 -0.074476 -0.0919119 -0.0550115 -0.0043229 -0.0836388 -0.0823402 -0.0496135 -0.0359456 0.0472487 0.055149 0.0279555 0.0505963 -0.0401881 -0.0362881 -0.044768 -0.036936 -0.0852452 -0.100037 -0.0148252 -0.0420913 0.00413311 -0.0537791 -0.0474108 0.0788167 0.105342 0.0944792 0.105101 0.0721428 -0.0180693 0.0863966 0.0301494 0.0762935 -0.0189726 -0.0856684 -0.0636262 -0.0482221 -0.0487811 0.0283938 -0.0732365 -0.0132947 -0.0654894 -0.059215 0.00567814 0.032088 -0.0149061 -0.00694447 0.0249016 -0.0489906 0.0411029 0.0111942 0.134123 0.123304 0.0663248 -0.0616277 0.0120637 0.116746 0.0814503 0.0988756 -0.107804 -0.0230142 -0.090182 -0.0673002 0.0380918 0.00643116 0.0309069 0.0162492 0.0795598 0.0247805 0.0176939 0.0580427 0.0116867 -0.06376 -0.121046 -0.0874387 -0.00213535 -0.0580303 -0.127691 -0.137627 -0.0538865 0.0339478 -0.01626 -0.0250481 -0.0254722 -0.00514925 -0.0134165 0.0477168 0.0616889 0.0432411 0.00596654 -0.0638167 -0.0239093 0.0596556 0.0738368 0.0091716 -0.0307682 0.0695834 0.0273381 0.0919592 -0.00616902 -0.0318434 0.0858935 0.0194328 0.0166881 -0.0495461 -0.0606783 0.00371464 -0.061548 0.000252111 -0.0887125 -0.0259742 -0.051458 -0.0592152 -0.0260155 0.0166868 0.0266791 -0.0157941 0.0205511 0.00976961 0.0483607 0.0484192 0.043257 -0.0225242 -0.0144239 0.00643937 0.0104129 -0.0447159 -0.0336989 -0.0257182 -0.000434783 0.0331609 0.0243369 0.0179653 0.0147272 0.00647707 0.0589432 0.00257217 -0.0112753 0.0428677 -0.00816695 0.0867602 0.073959 -0.0406506 0.0084608 -0.0588207 0.0375143 0.0276577 -0.0526527 -0.093963 -0.0645033 -0.0162701 -0.0585246 0.0103786 -0.024635 -0.0261242 0.0135187 -8.84433e-05 -0.00676905 0.0543308 0.0761586 0.0533418 0.0900729 0.0963647 0.0564217 0.0123026 -0.0825383 0.0217173 0.0321644 0.108313 0.0859462 -0.0168023 0.0933126 0.0833188 0.0365088 0.041793 -0.0616444 0.0199934 -0.0196607 -0.0458853 -0.0712773 -0.00860175 -0.0598832 -0.01571 -0.031642 0.00604858 -0.0665877 -0.0467253 -0.00684364 0.00369242 0.0248848 -0.0147739 -0.0879127 -0.011598 0.0321925 0.056483 -0.0186784 -0.0274198 0.0553126 0.12976 0.123372 -0.0824384 0.0575215 -0.0289486 0.0496542 -0.0739756 -0.0454062 -0.0331647 -0.0323188 -0.0117769 -0.0543139 -0.00055014 -0.0137579 -0.0155922 -0.0696492 -0.0118598 0.0269971 0.0617053 0.0199552 0.0988418 0.0544368 0.0170718 -0.0149401 -0.00731544 -0.0476109 0.00576332 0.0614043 -0.0102775 -0.0389632 -0.114941 0.0323461 0.0120863 -0.0286434 -0.0935433 -0.085863 0.0324253 -0.0215343 -0.00415817 -0.0669681 -0.0325303 -0.032973 -0.0103788 -0.041802 -0.0381094 0.00387338 -0.00309414 -0.104713 0.0278973 0.0183806 0.0929971 0.0170916 0.023503 0.021532 0.0289108 0.0604615 0.00140314 -0.0362257 0.0169636 0.0896429 0.0258763 0.0522974 0.0210376 -0.0544299 -0.0118485 -0.0702427 -0.00987041 0.0204634 0.0565629 -0.0113995 0.00563762 0.0481862 -7.45949e-05 0.0457707 -0.0275772 0.0198294 0.0106864 0.0767104 -0.0128832 -0.0263934 -0.0369155 0.0373799 0.0445728 0.0190937 0.0160076 0.0278777 0.00196364 -0.0118362 -0.0357049 0.00301458 -0.00291901 -0.0116716 -0.0170515 0.000338243 0.0321666 0.00417056 0.0382817 0.0332856 -0.0621425 -0.0362368 -0.025155 -0.0255883 -0.0141235 -0.0305997 -0.0613391 -0.0649469 0.0103245 -0.0177305 0.0127618 -0.048878 -0.0676147 -0.0115231 0.0396622 0.063971 0.0163193 0.0378404 -0.0131308 -0.0194462 0.0155931 0.000566805 0.0611598 -0.0351179 -0.0644005 -0.0120508 0.101608 0.101939 -0.0128514 -0.0305027 -0.0385428 0.02485 0.0547266 0.0144886 -0.0432229 -0.0700979 0.00168495 0.0721694 0.0740659 -0.00770983 -0.036611 -0.0409271 -0.0927938 -0.00723428 -0.0413739 -0.00393115 -0.0493829 -0.0474966 0.00442395 -0.0221252 0.0989461 0.0144207 0.0659699 0.0791199 0.0167454 0.0377086 0.0397895 0.0952793 0.0794189 0.0343262 -0.080951 0.0308551 0.0269905 0.0709191 0.0528093 -0.0536655 -0.0705429 -0.0860829 -0.0730562 0.0234184 0.0283131 -0.0119903 0.0516027 -0.0115589 0.0503778 0.0697306 -0.0108866 0.0496686 0.00408212 0.0168306 0.034034 -0.0471367 -0.00337734 -0.00550428 -0.00628297 0.0571318 0.0580012 -0.0145422 -0.00209425 0.0488585 -0.016347 0.0285694 0.0239616 0.00209171 -0.0647436 -0.0399593 -0.000440042 -0.084392 -0.0595987 0.0373424 -0.0475759 0.0079804 0.00458343 0.04061 -0.0151491 -0.0184081 -0.0592693 -0.000137047 0.0170617 0.00692679 0.0375775 0.0171441 -0.0562066 0.0495517 0.0391441 -0.0373395 0.0218042 0.0888001 0.0766142 0.0138517 0.0646108 0.0284513 0.0189985 -0.0199482 -0.0290272 -0.0317095 -0.0318443 -0.0196945 0.0579497 -0.0214272 0.0408037 -0.0455453 -0.0292922 -0.0450797 -0.032911 -0.0108475 0.0455285 -0.0116662 0.0264191 -0.0220247 0.0539904 0.0341589 0.00658891 0.0107343 -0.03927 -0.0258119 0.0120866 -0.0117173 0.034635 -0.0208313 -0.00544549 0.0141164 0.0207414 0.00865856 -0.0181378 0.0485764 0.0128418 0.0581287 0.0194395 -0.0123348 -0.0167034 0.000666274 0.0564543 0.0216877 -0.0193158 0.0125533 -0.00344882 0.0245938 -0.0877102 0.0106571 -0.0809092 0.00368327 -0.0390886 -0.0550223 -0.00487823 0.0205146 0.0108774 0.0335735 0.0338961 0.0377199 -0.0383445 -0.0404692 -0.0307319 -0.01306 -0.0561657 -0.0285379 -0.0409333 0.0323487 -0.00713018 0.0154336 0.0381042 0.0551769 0.010225 0.0140938 0.0498358 0.0690953 -0.0586767 -0.0222106 -0.0925923 -0.0678173 0.0252556 -0.00155158 -0.0571175 -0.0202011 0.0235751 0.0172769 0.0294699 -0.00279657 -0.0593462 -0.0461382 -0.0678407 0.0369543 -0.0229005 -0.0172484 0.000658278 -0.0142275 -0.0319239 0.00871604 0.0528751 0.0354413 0.081641 0.0180378 0.063083 0.0855942 0.0693443 0.08533 0.0402108 0.0109385 0.105994 0.110748 0.05218 -0.00113772 -0.0506966 0.0481274 0.0546232 0.0606374 0.0212366 -0.0306596 -0.0124863 -0.0473606 -0.0273791 0.0721985 0.0209184 -0.0176249 -0.0170039 -0.0119161 0.0363457 -0.0434178 -0.0572232 -0.0844032 -0.0756732 -0.057394 -0.0209489 -0.0135174 -0.0374985 -0.046465 -0.00898428 0.0490911 0.0320031 0.00569363 0.0113368 -0.0170479 0.0423582 0.0819902 -0.0653554 -0.0547806 0.0254946 0.028168 0.0614659 -0.0479396 -0.0200154 0.00912308 0.0230893 0.0179897 0.0605106 0.0162867 -0.00888054 -0.00959223 0.0847075 0.0603925 0.024186 0.0656822 -0.0188072 -0.00149381 0.00356445 -0.0259122 -0.00196531 -0.0549574 0.0152244 0.0478237 0.0463914 -0.0343226 -0.0751844 -0.0565795 0.0477135 0.0199159 0.00674998 -0.0502538 0.0365932 0.0631325 0.0389771 0.0546964 -0.08162 0.0197805 0.0454207 0.00357559 -0.00763847 -0.00882977 -0.0469116 -0.0678897 0.0159873 0.0581609 -0.0084143 -0.0427447 -0.0758715 0.0551703 0.0621302 0.00587522 -0.0882917 0.0123083 0.0291923 -0.0315161 -0.0549954 -0.0437181 -0.0667323 -0.0745745 -0.0670513 0.0781189 0.0102448 -0.0165185 -0.0252996 -0.0189549 0.109302 0.0809253 -0.025653 -0.0187285 -0.0512679 0.0794132 0.0410747 -0.0442909 0.00936296 -0.0482029 0.071305 0.0499875 0.0407593 -0.0452408 0.0383804 0.0617191 0.0101944 -0.0830921 -0.0809449 -0.083824 0.0965424 0.019492 -0.0252492 0.0189959 0.0126 0.0549578 0.0826663 0.0461115 -0.0588576 0.0054799 0.0198031 0.05661 0.0430317 -0.0539636 -0.0636814 0.0339247 0.0387474 0.0522104 0.00508724 -0.0347701 -0.0424185 0.0574342 0.0569641 0.0778052 -0.024993 -0.0222418 0.0284891 0.01237 -0.0256058 -0.0515422 -0.0355786 0.0559428 0.00698702 0.00692036 -0.0516685 -0.079707 0.0434829 -0.0128649 -0.081933 -0.1046 0.031568 0.0191594 0.0143219 -0.0430947 -0.0646554 -0.0134102 -0.0599923 -0.0450579 -0.0347964 0.0287682 0.0354287 -0.0568388 -0.00815863 0.0260544 0.0531069 -0.0347542 -0.0383368 -0.00249948 0.00776157 0.0424118 -0.0258906 0.0391868 0.0234326 0.0143191 0.00458223 -0.0465934 -0.013045 0.0292022 0.0396928 -0.0456267 -0.00589211 0.053458 0.00757335 0.023262 -0.00106634 0.0293724 -0.0154002 -0.0167021 -0.0528847 0.0267245 -0.00526383 0.0104385 0.021778 -0.0357875 0.0116128 0.00501792 0.0109862 -0.000928383 -0.0618414 -0.0251039 -0.0130017 -0.0221367 0.0471522 -0.0203662 0.00879826 -0.0150884 0.0358151 0.0368608 0.0498653 -0.0180302 -0.0479569 0.0346822 -0.00898198 -0.0128201 -0.0442869 -0.0111277 -0.0193569 0.0515055 0.00413161 -0.00217762 0.0291164 -0.0111179 -0.0140165 0.0175644 -0.0514693 -0.00784215 0.0123143 0.0039103 -0.0213759 -0.0236199 -0.0132788 -0.0701234 -0.0782822 -0.010625 0.0297258 0.0322518 -0.0197558 -0.0623816 -0.0375844 0.0517513 -0.0452178 -0.0477762 -0.0490471 0.048392 -0.0190667 -0.064955 -0.0172333 -0.0134767 0.0721939 0.0501257 0.00150824 -0.0184236 0.0661974 -0.00654495 -0.0348839 0.00145562 -0.0915099 -0.00615199 -0.0699139 -0.0471405 -0.00759342 -0.0843636 0.0117253 -0.0698722 0.066639 0.0892378 -0.0523078 0.0132495 -0.00160703 0.00519473 0.0658531 -0.0335633 -0.0312355 0.0130934 0.0846352 -0.0392285 0.0255922 -0.0448767 0.000951167 -0.0049234 -0.015575 0.0638121 0.00360784 0.0609081 0.0598927 0.00486527 -0.00297451 0.0462111 -0.0227632 0.0119985 -0.0546001 -0.0302539 -0.0331997 0.0532352 0.0708646 0.0416615 -0.0496852 0.00316163 0.0382274 0.0799268 -0.0131408 -0.0343033 0.0247407 0.00586426 -0.0315433 0.056872 0.04425 0.00938083 -0.0494457 0.00144946 0.00383668 0.0250625 0.0148972 -0.0160499 -0.0417189 0.00266199 0.0191378 -0.07884 -0.00663176 0.00786329 -0.01489 0.0511715 -0.0451848 0.0381071 -0.0265363 -0.00598289 0.0189831 -0.000155481 -0.0111431 0.0158548 0.0387641 0.0445291 0.0749725 0.00941066 0.0156662 -0.0195532 -0.00440602 0.0542382 0.0529131 0.00534086 0.0173369 0.0267986 -0.00819707 0.0620673 0.0404445 -0.0111541 -0.0208713 -0.0203696 0.0292026 0.0453609 0.00712325 -0.0582622 -0.0570561 0.00438704 0.0501584 0.0288565 0.017351 -0.00445761 -0.00236325 0.0180861 0.0223984 0.00658897 0.0106267 0.0128657 0.0699143 0.0140573 -0.084818 0.052202 0.0523037 0.0471855 0.0476761 -0.0458451 0.00886186 0.0497375 -0.014061 0.0557733 0.0164423 -0.0649413 -0.00443402 0.00456054 -0.0229552 -0.0450763 0.00389114 -0.00381831 0.0391523 -0.0115247 0.0128514 -0.0044886 -0.0939642 -0.0718443 0.0353514 0.015103 -0.00576704 -0.0683763 -0.00440111 -0.0520257 0.0354513 0.0123284 0.0516255 0.0147389 -0.00459951 0.0129621 0.0496759 0.0683723 -0.0253492 -0.00600027 -0.0353034 -0.0174541 -0.0270206 0.0470092 0.019992 0.0841873 -0.0229567 -0.0570359 -0.0123713 -0.0142691 0.0504716 -0.0389812 -0.0795851 -0.0114644 -0.00286845 0.0140623 0.0540571 0.0201075 -0.0368267 -0.0776621 0.0176194 0.0306954 0.0463056 0.0340975 -0.0342555 0.0102142 -0.0213826 0.0320687 -0.0114985 0.0391466 0.0839796 -0.0158372 0.0295305 -0.0135223 -0.00620502 0.0322386 0.0385672 0.0421654 -0.0187939 0.0567487 0.0946979 0.130259 0.0418089 0.0768925 0.164862 0.0936463 -0.00102674 -0.031612 -0.0477352 -0.0697942 -0.0536438 -0.0671943 -0.0190727 0.0485369 0.0132665 -0.0606983 -0.0416438 0.0218938 0.00862034 -0.00746743 -0.0129637 -0.0689086 -0.00828982 -0.00918298 -0.0601355 -0.102096 -0.0488362 0.0320025 -0.0415661 -0.0689048 0.0038933 0.0756607 0.0136519 0.12931 0.135546 0.13551 0.0423832 0.0236579 0.0472957 0.0711573 0.0631334 -0.0285348 0.0149343 -0.00859571 -0.000679504 -0.00734282 0.0799377 -0.0136068 -0.0148747 -0.0288339 0.0200336 0.0444543 0.0156471 -0.00202444 0.0953643 0.00644744 0.0428934 -0.00972715 0.00829773 -0.0155783 -0.0213549 0.00973244 -0.0410836 -0.0255059 0.052913 0.0276983 0.0529742 -0.00473316 -0.0354052 0.0199591 0.0912319 0.0755803 0.0136023 0.0417857 0.0435735 0.0319429 0.0696419 -0.0356114 0.033124 0.0247614 0.0271607 -0.0397465 -0.0120735 -0.0513752 -0.160091 -0.154168 -0.077392 0.0229634 -0.0445366 -0.0576586 -0.0587052 -0.0922639 0.038464 -0.0107247 -0.0837628 -0.0666719 -0.133243 0.0165716 -0.03218 -0.112803 -0.00531546 0.0168557 0.0122185 0.0720921 0.096017 0.0508008 0.0715175 0.0885257 0.0841454 0.125257 0.0286772 -0.0327922 -0.00936727 -0.0283895 0.00698124 -0.0398983 -0.0714223 -0.0179717 0.0461917 0.0120826 -0.0611866 -0.0886994 0.0194543 0.00791439 0.00512426 -0.0520268 -0.0452307 0.0444971 0.000647165 -0.0518195 0.0477206 0.0685838 0.0259255 0.105954 0.103012 0.131546 0.104609 -0.050126 0.0175132 0.0322001 0.0707388 0.0503231 0.0133409 -0.0593819 -0.0192033 0.0365794 -0.0557747 0.0242789 -0.066059 -0.0462328 -0.0274006 -0.0152876 0.0266521 -0.00696643 -0.0665321 -0.00559952 -0.0108736 -0.0343398 -0.0316423 -0.0549447 0.0188359 0.0119787 -0.0163874 -0.039043 -0.00347101 -0.0148567 0.0103798 -0.0186159 0.0669947 0.0770245 0.0310307 -0.0218815 0.0225662 0.0174093 -0.00401171 -0.0531977 -0.0743567 0.0309581 0.0236626 0.0699877 -0.0135656 -0.0557356 -0.0318341 0.0466625 0.0109418 -0.095008 -0.0319704 -0.0446668 0.0310525 0.0401978 -0.0173358 0.0114222 0.0507558 -0.0570991 -0.0215028 0.0311853 0.00672306 0.00882878 -0.0416938 0.00756225 -0.0077615 0.00985842 -0.0284757 0.0151442 -0.0619841 0.0575449 0.0242025 -0.00370933 0.0240372 -0.0416449 0.0473446 -0.0323211 -0.0194466 -0.0466067 -0.0156334 0.0581076 0.0353372 -0.00986982 -0.0857077 -0.0401593 -0.0147032 0.0238875 0.0463572 0.0105542 -0.0851797 -0.0681388 0.0554662 0.0206786 -0.0465345 -0.0578021 -0.00517236 -0.0223336 0.0631529 0.0113515 -0.0198655 0.0300407 0.0390252 0.0778383 0.0505253 0.0068753 -0.00804738 0.0337309 -0.0290637 0.0790042 0.0650345 -0.0455645 -0.0526912 0.0125667 0.0331619 0.078146 0.0229407 -0.0655591 -0.0138639 0.0568694 0.0328793 0.0202492 0.0103144 0.000602526 -0.0433569 -0.0315354 -0.028267 -0.0384823 -0.117028 -0.0092503 -0.0335017 -0.0238838 0.00566375 -0.00851826 0.106927 0.11444 0.0772127 0.0265107 0.00330083 0.0391063 0.040605 0.0345522 -0.023273 -0.0641659 0.0223936 0.0560145 0.0826688 -0.0438925 -0.053674 -0.00417321 0.0446842 -0.0138626 -0.0124557 -0.0589731 0.00974618 -0.0193829 0.0621988 -0.00909769 0.0389249 0.0183952 0.0377932 0.016337 0.0610605 0.0957308 0.0192059 -0.0306659 -0.0163522 0.0618225 0.0850082 0.0336236 0.0708973 0.0098324 -0.0293423 0.0011182 -0.0166604 0.0691457 -0.0126199 -0.102152 -0.0570014 -0.0264774 0.0166168 -0.061143 -0.0204759 -0.00977489 -0.0328328 0.0452054 0.00387309 -0.0940347 -0.0494649 -0.0703356 0.0163916 -0.00182114 0.0208335 0.0406133 -0.0466837 -0.0516165 0.0525317 0.0553182 0.0740577 0.045015 0.0535217 0.0600553 0.0159607 0.0645043 0.0706932 0.0453126 -0.0304232 0.0381099 0.00730278 -0.0129371 0.00258689 0.00937146 0.0502921 0.0622977 0.0560569 -0.0481305 -0.0118064 0.0448833 0.0122987 0.108052 -0.0168126 -0.00572753 -0.0159706 0.0123306 0.0569068 -0.0338958 0.0316525 -0.0419765 -0.0476934 -0.0256755 0.0449228 0.0691316 0.0432596 0.00425484 -0.0180205 0.0236701 0.0142409 0.0184575 0.0755546 0.0243324 -0.00441242 0.0163923 -0.016458 -0.0463714 0.0326989 0.072902 0.0490068 -0.0407641 -0.0502092 -0.0146295 0.0207688 -0.0758246 -0.0676863 -0.0721795 -0.0880571 0.00805799 0.035114 -0.059668 -0.0637548 -0.0444871 0.092024 0.0143807 0.00243838 -0.0451734 -0.0567241 -0.0336928 0.0115886 0.0416087 0.0854593 0.0744012 -0.00896021 0.0165199 0.0539135 0.138484 0.0922496 0.0397338 0.0575947 0.044724 0.0955161 0.0785367 0.0393105 -0.00827513 -0.0594497 -0.0851086 0.0151795 0.0204236 -0.0120046 0.0181834 -0.0686469 -0.0151055 0.0194028 0.0334878 -0.0263902 -0.00375076 0.0133033 -0.0391851 -0.0548189 0.00615624 0.110069 0.125704 0.0330048 0.0286238 0.0221908 0.0293477 0.0129241 -0.0109533 -0.0523332 -0.0993647 -0.0906816 -0.0512752 -0.0573845 -0.130977 -0.103011 -0.0598115 -0.0321628 0.0291858 -0.0714019 0.00371105 0.0505651 0.103721 0.104607 0.05296 0.0242668 -0.00961117 -0.072479 0.000601229 -0.0372171 -0.0473137 -0.108327 -0.0935879 -0.015507 0.0231101 0.0770124 0.0151823 0.0192073 0.0119882 0.00987387 0.0257705 -0.092398 -0.0987728 -0.0774877 -0.0312618 -0.027159 -0.075329 -0.0366979 -0.0178937 -0.0394148 0.0773027 0.0565709 0.0289008 0.0756863 0.0683772 0.0422137 0.0471402 -0.0210502 0.0265879 -0.0307 -0.0441348 0.0216427 -0.021969 -0.0315243 -0.0664616 -0.0677116 -0.0653842 -0.0150213 -0.0132952 0.00443145 -0.03132 0.0203353 0.0317025 0.00616221 -0.038135 -0.0266443 -0.0412247 -0.0431625 -0.0132623 -0.055389 0.00137163 -0.0772473 -0.0711011 0.00141678 -0.0848344 -0.0841079 -0.0234834 0.0228075 -0.0544872 -0.072206 -0.0528724 -0.00982177 0.0856357 0.0381379 0.0327136 0.00864465 0.0562477 0.028573 -0.000437892 0.0323518 0.00933281 -0.0160212 -0.058355 -0.0301223 0.0153439 -0.019012 0.0256652 -0.0223678 0.00182922 0.074663 -0.0172835 -0.0159602 -0.0786911 -0.0829205 0.0378596 -0.0219166 -0.0768614 -0.0528551 -0.103978 0.0233047 -0.0082878 0.00145544 0.0450087 0.037753 0.00942511 0.0491821 0.0685476 0.0872929 0.00575551 0.011623 -0.0520097 -0.0523856 -0.0685499 -0.0257146 0.0980274 0.0298591 0.00168932 -0.014491 0.0324735 0.118287 -0.00846046 -0.0838608 -0.0352607 -0.108417 -0.0311899 -0.0120473 -0.00516774 -0.0586429 -0.0311351 -0.0308598 0.0912239 0.0827835 0.107778 0.102203 0.0140598 0.0245052 -0.0353638 -0.0219368 -0.0222854 -0.000737376 0.0468889 0.0103159 -0.0857466 -0.0330522 -0.0650934 -0.0149119 -0.000936131 -0.0744075 -0.0451632 -0.0606496 0.0375683 0.00195171 -0.0118886 -0.0427975 -0.0199459 0.0357965 0.0215254 0.0572235 0.0517996 -0.0162988 0.0107258 -0.0034565 0.0422131 -0.0160919 0.0443765 0.031464 0.0213165 0.0467314 -0.0188952 0.0828967 0.019688 0.0746561 -0.00389734 0.0552225 0.00627196 0.0254084 -0.0438836 0.0190898 -0.0708449 -0.0432315 0.0733538 -0.0616573 -0.0532502 -0.0573904 0.0182295 0.0154821 -0.0516928 -0.0189719 -0.0794971 0.00408476 0.000467016 0.0237276 -0.0632467 -0.00452412 -0.0518935 -0.04675 0.0278322 0.028439 -0.0700955 -0.0448269 -0.0270595 0.00556929 -0.0242698 0.0355701 -0.0198042 0.0102663 0.0732094 0.0367017 0.018953 -0.00871124 -0.0102402 0.0609675 -0.0136498 -0.0250678 -0.0237001 0.00175938 -0.0240402 -0.0114179 -0.0211946 -0.0477678 -0.0166319 -0.0535313 -0.0132761 0.0149325 -0.0543993 -0.0563441 0.0196368 0.0560188 0.069278 -0.0266743 0.00455686 -0.00507206 0.0177793 0.0736859 -0.00154702 0.00682652 -0.00222789 0.0377199 0.0763859 -0.00115242 -0.0423833 0.0340745 0.0867715 0.0563629 0.083547 0.0576113 0.0161248 0.0190536 0.0352664 -0.0224112 0.00881502 -0.0354231 -0.0178329 -0.046684 0.0160651 0.0218477 -0.0844705 -0.0725217 -0.0258263 0.0318032 0.0088819 -0.0448574 -0.05495 -0.0415675 -0.05753 0.0433754 -0.0347342 0.037115 0.0595736 0.021531 0.0476166 0.0697643 0.0822121 0.0460275 0.0481456 0.0070342 0.0332284 0.00829167 0.0039688 -0.0247519 0.0129122 -0.042285 -0.0646731 -0.0868927 -0.0771449 0.0485283 -0.061839 -0.0860141 -0.0756831 -0.0553272 0.0100597 -0.0401693 0.00809587 -0.0917138 -0.101683 -0.105772 0.0365005 0.0577881 -0.0513257 -0.0399559 -0.0263221 0.0551084 -0.00666735 -0.0751068 -0.110251 -0.0524564 -0.0515884 -0.0166243 -0.0641095 -0.0601996 -0.0727725 -0.0383303 -0.00995273 0.00677087 0.131119 0.0956091 -0.0220293 0.0141644 0.059886 0.0177102 0.0245255 -0.0326548 0.053125 0.111095 0.0468738 0.0759197 -0.015911 0.00423629 0.0784286 0.0152851 0.0213341 0.0795448 0.0697633 -0.0412535 -0.0609565 -0.05937 0.00179369 -0.0932511 -0.131892 -0.143516 -0.0926007 0.00682739 -0.00784459 -0.027413 0.00555113 -0.0285034 -0.0105863 -0.0427858 -0.0421431 -0.0620232 -0.00234733 0.00556831 0.00678372 -0.0180242 -0.0349212 -0.0286887 0.0259418 -0.0563485 -0.0621386 -0.0850147 -0.0659382 -0.000514768 -0.0391834 0.036798 0.0613398 0.0390905 -0.00443733 0.0542703 0.0118326 -0.0618505 -0.0686457 0.0634394 -0.00531754 8.66473e-05 -0.0837412 -0.0387587 0.000218736 -0.0561521 -0.0780424 -0.0199578 -0.0659949 0.0478262 -0.036333 0.000705542 -0.0200441 0.0442384 -0.0200497 0.0211992 0.125185 0.0893919 0.116594 0.0138097 0.0562822 0.0818875 0.0567245 0.0791426 -0.0655672 0.0605448 0.0881656 0.06417 0.0650433 0.027841 -0.0240112 0.0179238 0.0515849 0.0463513 0.00688705 -0.00529098 -0.0811838 -0.136681 -0.0873775 -0.0888776 -0.0441694 -0.108135 -0.0752712 -0.119024 0.0349274 -0.0463848 0.0608573 0.11443 0.0590536 -0.0765535 -0.0478998 0.0265035 0.042467 0.0320794 -0.0385901 -0.0113754 0.0586452 0.0095761 0.0825178 -0.017579 0.0510641 -0.0265778 -0.101971 -0.0618068 -0.0220849 -0.0806197 -0.143777 -0.161273 -0.0969903 -0.00845613 -0.0675273 -0.103009 -0.122966 -0.0311139 -0.0829009 -0.0216143 -0.09923 -0.0345244 -0.0366352 -0.0607047 -0.0200102 0.0435849 -0.0319481 0.0560138 0.0410363 0.0117661 0.0349521 0.0336261 0.0840057 -0.0370574 0.0787767 0.0603093 0.0884791 0.0264661 -0.0247499 -0.000653293 0.0825557 0.0268808 0.0923484 0.0243838 -0.0407336 -0.0266154 0.0278813 -0.000630085 0.00851816 -0.044387 -0.0266306 -0.0149155 -0.00975972 0.0454739 -0.0340689 -0.098007 -0.0822965 -0.0407732 0.064824 0.000591571 0.00409456 0.0367851 0.0439595 0.0206216 -0.0131566 -0.00942307 -0.0672631 -0.0821436 -0.0491265 -0.0240839 -0.0423592 -0.0511619 0.00956165 -0.0366815 -0.00577257 0.0344255 0.033914 -0.0222715 -0.0377177 0.05284 0.0216733 0.0359994 0.0511639 -0.0182368 0.0427143 -0.0148097 0.0595441 -0.0400933 0.0324864 0.0113799 -0.0444373 -0.0283272 -0.00919249 -0.0765519 -0.0437576 -0.015324 -0.0217077 -0.0563027 -0.0466372 -0.00665561 0.0294703 0.0559236 0.0211185 0.0206968 0.0299397 0.0682708 0.0258359 -0.000554144 0.00569828 -0.014592 0.0481111 0.0456913 0.0175528 -0.0173337 0.0189537 0.0218683 0.0186561 0.0300213 0.0512352 0.0136687 -0.0469325 0.0127261 0.0150402 -0.0306153 -0.0834109 -0.00477588 -0.0668283 -0.0807737 -0.0122411 -0.0521266 -0.102769 -0.0775636 -0.0511314 0.0392285 -0.0523276 -0.0619841 0.0269993 0.0818534 0.0565208 0.0700853 0.0769565 0.0743632 0.0223325 0.0445299 0.00736367 0.0188129 0.0404248 0.0318874 0.0400648 -0.00534827 -0.0638561 -0.0764958 -0.0503503 -0.0579931 -0.0982011 -0.0780455 -0.0863819 -0.0971875 0.0172851 -0.0834894 -0.0413845 0.0275342 0.0117153 0.0551371 -0.0153328 0.0520846 0.0449922 0.0734736 -0.0168093 0.0249648 -0.00319012 0.0120655 -0.0870767 -0.085867 -0.0144207 -0.0424297 -0.0454532 -0.0615175 -0.0826473 -0.0721121 -0.0595338 -0.103541 0.00510318 -0.0348065 -0.0240514 -0.035246 -0.0626838 -0.0201975 0.0450363 0.0372779 -0.0520493 -0.010197 0.0566361 0.0188585 -0.0783942 0.0751768 0.0667327 0.0004922 0.0194899 0.0387951 0.0565554 -0.0199489 -0.0503165 0.0491891 0.0521029 0.0886288 0.0468093 -0.0146876 -0.0437631 -0.100321 0.0357656 -0.00522306 -0.122335 -0.0429491 -0.117415 0.0444866 0.0357566 -0.0102347 0.076999 0.0830611 0.0423589 -0.0518173 0.0179477 0.0359297 0.0018612 -0.0610973 -0.0730504 0.000868819 -0.0198414 -0.0458293 -0.0494232 0.0103548 0.0299208 -0.00963877 -0.0341714 -0.0116776 0.0515825 -0.0222002 -0.023809 0.0543506 -0.0378237 0.0445866 0.0125734 -0.000281559 0.036045 0.00301836 -0.0431225 -0.0157717 -0.012483 -0.00942988 -0.0173565 -0.0189081 -0.0738082 0.00443302 0.00261292 -0.07021 -0.0889607 0.0246891 0.0339147 0.0639681 -0.030407 -0.0351746 0.0416035 0.0304893 0.0626717 0.0429478 0.0241895 0.0804331 0.013494 -0.024296 0.102946 0.0982686 -0.00729531 0.0734022 0.0860515 0.0297322 0.0802861 -0.0235034 0.0110026 -0.0309574 0.0408521 0.0170514 -0.0165933 -0.0988509 -0.10752 -0.051044 -0.0583003 -0.123155 -0.0760959 -0.0760986 -0.00315504 0.0288547 0.0174163 0.0410198 0.00103153 0.0525454 0.0437587 0.112263 0.0558196 0.0506495 0.0231119 0.0802332 0.0441447 -0.0264983 0.0489994 0.022603 0.0603939 -0.0146757 -0.0821992 -0.0687989 0.0541181 0.0466563 -0.105844 -0.104639 -0.0899326 -0.00945692 0.0420015 -0.0331376 -0.00923557 -0.0669975 -0.0980862 0.0298498 0.0255972 -0.00302091 -0.0310251 0.0348814 0.0651058 0.0279887 -0.0322227 0.0145595 0.0136336 0.0176326 -0.0029311 0.0601273 -0.0350592 0.0335012 -0.0255956 0.0314051 -0.0039961 -0.0060772 -0.0303143 -0.0177992 0.0107638 0.0243771 -0.0024564 0.0577091 -0.00988973 -0.0430426 0.023346 0.0121455 -0.0122851 0.00173078 0.0106848 0.0503941 -0.0262033 -0.0131564 -0.0319462 0.017217 0.0168087 0.0120883 0.0235724 -0.0572354 -0.0320802 0.00303237 -0.00665273 0.0701115 -0.0443885 0.0144371 -0.0162896 0.000691302 -0.016075 -0.0495964 0.00492557 -0.0428601 0.0386993 0.00242265 -0.0431864 -0.0280504 0.0492095 -0.0359283 -0.0390966 0.0422708 -0.0353436 0.0389479 0.0246643 -0.000368477 0.0331993 -0.0129963 -0.034937 0.0544855 -3.35693e-05 0.0267092 0.00642473 -0.0519099 -0.0295995 -0.0476279 0.00910789 0.0239054 -0.00912366 0.00926483 -0.00520518 0.0661117 0.0291975 -0.0340543 0.000539621 0.0151213 0.0166617 0.0403872 -0.000558845 0.00558036 -0.00212029 0.0112574 -0.00530964 -0.0278868 0.0257869 0.00535719 -0.0320421 0.0370657 -0.0428888 0.00332896 0.0374756 -0.0577565 0.0133666 -0.00938059 0.0170252 0.0357052 -0.0328365 0.010693 -0.0253923 -0.0564278 -0.0282129 0.0206529 -0.0290559 -0.0272039 -0.0599569 0.0160566 -0.0301892 0.00536888 -0.0247629 -0.00166818 -0.00319677 0.000712812 0.0654849 0.0131838 0.0420936 0.0541504 -0.0476942 0.0110282 0.0469092 0.0152986 -0.039609 -0.0650133 -0.0627732 -0.00114136 0.0133874 0.0187721 0.00038916 0.0153153 -0.0734252 -0.0268792 -0.0567274 -0.0551308 -0.0607127 -0.0149125 -0.0311729 0.0275793 0.0362511 0.0836287 -0.0225381 -0.0596389 -0.0422432 -0.038708 0.113348 0.0974488 0.00508345 0.0389782 0.013435 0.0633066 0.0804259 0.0603066 0.109954 0.0880489 -0.0175388 -0.0121041 0.0161599 -0.0265886 -0.0569343 0.0691344 0.027257 -0.0338433 0.00750496 -0.0459779 -0.0201463 0.019499 0.0817931 0.0416465 -0.0544177 -0.00307484 -0.044987 -0.0426051 -0.0484991 -0.0703149 -0.0022233 0.0176683 0.0250919 -0.0249773 0.0365025 0.0122927 0.00365585 -0.00567284 0.0503717 0.0323103 -0.0442552 -0.0389819 0.0108409 -0.0207422 0.0632321 0.0434651 -6.14671e-05 0.00748425 -0.0040028 0.0280463 -0.00851106 4.40764e-05 0.0517899 0.027709 -0.0241446 0.000315935 -0.0323164 0.0628298 0.000450859 0.0531277 0.0347267 0.00119606 -0.0319692 -0.0474309 -0.0273519 0.0510507 -0.0142937 0.017481 0.029861 0.0148959 0.00311477 0.0391712 -0.0136044 -0.0135286 -0.0160058 0.0194555 0.0693935 0.059837 0.0587662 0.0158376 0.0187865 0.0218881 0.0388279 0.0577185 -0.00450412 0.0276383 -0.0107416 -0.0271055 0.0130127 -0.014565 -0.03456 0.0547829 -0.0298971 0.0170276 0.0213233 0.00663617 -0.057428 -0.00509901 -0.0367407 -0.0769275 -0.0367497 -0.0715381 -0.00973767 -0.0763448 -0.0149567 -0.0186439 -0.00947243 0.0571445 0.0547252 0.0227119 0.0175789 -0.0448708 0.0132253 0.0335336 0.0583841 -0.0150806 -0.0208436 0.0366839 -0.00928409 -0.00296711 -0.0639901 -0.033168 0.0377562 -0.01329 -0.00413919 -0.101084 -0.0514926 -0.0767621 -0.0470979 -0.0487561 -0.0583673 0.0059611 0.03303 0.00925831 0.0575641 -0.064826 0.00552847 0.0417992 0.0110985 0.00325633 0.0232778 -0.0366688 -0.0165316 0.00503082 -0.0200277 0.079199 0.0882672 0.111552 0.0960042 0.156232 0.0867929 0.037151 0.043911 0.0893418 0.012325 0.131782 0.0941211 0.0624085 -0.0612373 -0.041202 0.00323316 -0.0138106 -0.0792146 -0.0246828 -0.112828 -0.0599253 -0.0956797 -0.00801176 -0.0744851 -0.0675802 -0.0202796 -0.134833 -0.0899566 -0.0294105 -0.0192017 -0.0570468 -0.0399608 0.00463969 0.0361218 0.0194648 0.00590092 -0.0157762 0.096247 0.095593 0.0456067 0.0191303 0.11318 0.0503023 0.0737264 0.0368378 0.0324893 0.0556667 0.0246163 0.0447573 -0.00624386 -0.0643933 0.0507239 0.0944877 0.0671215 0.074022 0.0554335 0.0141726 0.063969 0.0714739 0.0463507 0.108105 -0.0329453 -0.0332548 0.0297693 0.0461388 0.0486555 0.0348313 0.0131849 0.00130289 -0.0293057 0.00259748 -0.0524022 -0.049315 -0.0393371 -0.0356977 0.0442423 0.0801043 0.118232 0.0253271 0.0156469 0.0158344 0.049469 0.0733816 -0.0156342 0.0266119 0.0411346 0.0146371 -0.0104978 -0.0832551 -0.0487724 -0.0465216 -0.0236444 -0.0975938 -0.0423783 -0.0235725 0.0206493 -0.0663145 -0.0609313 0.0083091 -0.0595183 0.0422868 -0.10457 -0.08094 0.00285696 -0.0687079 -0.0904762 -0.0292311 0.0221725 0.00923447 0.0401883 0.0550583 0.0364731 0.0783186 0.0586627 0.097938 0.0667804 0.0926875 0.0436025 0.110671 0.054291 0.00399839 0.0602149 0.0116529 0.0599383 -0.0617303 0.000570408 -0.0833953 -0.12131 -0.0202286 -0.0197112 -0.108285 -0.0650461 -0.0483631 -0.0324374 0.0643679 -0.0232022 -0.0287657 0.0651236 0.109662 0.0490496 0.0898277 0.0311587 0.108267 0.0605999 0.107299 0.0282038 0.0424989 0.057497 0.00190552 0.087335 -0.0666206 -0.0468146 -0.00247677 -0.0366329 0.0188826 0.0529369 -0.028421 0.0347904 0.0519479 0.0999567 0.000318819 -0.0260254 0.0314576 0.0600523 -0.0693781 -0.0765764 -0.0310876 0.0413265 -0.0593301 -0.068294 -0.0587569 -0.013236 0.0321253 0.0959316 0.0174122 0.0478354 -0.0126616 0.0179328 -0.0487994 -0.0961497 -0.00961094 0.027056 -0.0471687 -0.0885798 -0.00997074 0.0725991 0.0509434 -0.0317399 0.000402017 0.127175 0.0229327 0.0838956 -0.0333662 -0.00875832 -0.0106647 0.0293159 0.00429531 -0.0335225 -0.0701783 -0.0869103 0.0134586 0.0587003 -0.0272774 -0.0176316 0.0202921 0.0329948 -0.0082035 0.00911695 -0.00116083 0.026966 0.0369899 0.011069 -0.0201076 -0.0467385 -0.0454368 -0.0641735 -0.0273441 0.0551871 -0.050289 0.00354671 -0.0311568 -0.0288464 0.0633077 -0.0232291 0.0161273 0.00762071 -0.0428137 0.000283708 -0.0376961 0.0144447 0.0803275 0.0501193 -0.0403937 0.014011 0.0110949 -0.0516619 -0.0586671 -0.0151981 -0.00713126 -0.0737928 -0.0193276 -0.0860518 -0.029732 0.0176146 0.046472 -0.0143793 0.0314749 0.00734915 0.0571277 -0.000207011 0.0316935 0.0161109 -0.0233478 -0.0680867 -0.0248126 -0.0349965 0.0480625 -0.0785942 0.00832082 0.024395 0.0902744 0.0324742 -0.0500859 0.0624437 0.0352559 0.074817 0.00262732 -0.0570433 -0.00463864 -0.0422866 -0.0639263 0.00967017 0.0132388 -0.0321696 -0.0413483 0.0284463 0.0143298 -0.0204833 0.0571764 -0.0691006 -0.0545385 0.0211508 -0.0638104 -0.0665675 -0.00491216 0.0839125 0.0861554 -0.00922799 -0.0143491 0.0776696 0.0886587 0.00574399 0.00769971 -0.0247334 -0.00974483 0.0108541 -0.0472237 -0.0377945 -0.0634579 -0.0002138 -0.00281355 0.0177419 -0.11603 -0.0669866 -0.0271573 0.0310678 -0.0170386 -0.00988234 0.00427168 0.0208113 0.0959805 0.041028 -0.0644434 -0.0749148 0.0582656 0.0737573 -0.0368455 -0.0110059 0.0327488 0.0442002 -0.0459353 -0.0305288 -0.066822 0.0339311 0.0277291 0.0163229 -0.0108049 -0.054947 0.0483322 -0.0486185 0.00968415 0.0829206 0.0518588 0.0146697 -0.0587827 0.0388286 0.059787 0.0523877 0.00595792 -0.121738 -0.0186468 0.0711155 0.0772621 -0.0236501 -0.0202322 0.0717464 0.120904 0.123106 0.0160356 0.00206258 0.0132457 0.0344046 -0.0017639 -0.00744606 0.0346617 0.00598261 0.00344489 -0.0362016 0.0418036 0.0266471 -0.00305623 -0.0329584 -0.0231314 -0.0116365 0.0477771 0.0318868 -0.0548546 -0.0644172 0.0561117 0.0445099 0.0257728 -0.0439128 -0.0577266 0.0585869 -0.00752439 0.00764357 -0.0352184 -0.0526224 -0.0766769 -0.0457839 0.0401359 -0.0257231 -0.00951934 -0.0784723 -0.0184476 0.0560914 -0.0149194 -0.0996895 -0.021275 0.0603686 0.00870023 -0.00456523 -0.0749578 0.0196984 0.00916219 0.00721231 -0.0470707 -0.0722881 -0.0228947 -0.0100933 -0.0478598 -0.0767749 -0.036896 0.00252417 -0.00894168 -0.0205644 0.0595013 0.0918842 0.0573448 -0.0955076 -0.0324673 0.047779 0.0519576 -0.0876924 -0.125391 0.0372234 0.00307849 0.089853 -0.0650155 -0.0356911 0.0439071 0.0535185 0.0337207 0.100372 0.0980923 -0.0307026 0.0541918 0.0410476 0.059256 0.0521879 -0.0666812 -0.0414928 0.0229124 0.0312247 0.0201968 -0.140935 5.0278e-05 0.046022 0.0643703 0.00348261 -0.115348 0.0650846 0.00686974 0.0192947 -0.059305 -0.0498797 0.0983742 0.0937236 0.0354605 0.0231601 0.0249171 0.0576374 0.0207682 -0.0414658 0.0561809 0.0505529 0.0626503 0.0327409 0.0293171 0.0161476 -0.0422671 -0.0729552 -0.049953 -0.0248754 -0.00145311 -0.0683589 -0.0444674 -0.0399102 -0.0160719 0.0290774 -0.00154253 -0.033394 0.0312308 0.0253108 0.0623227 0.0491861 -0.0322239 0.0194303 0.00539268 0.0617304 0.0372123 0.0439365 0.0322735 -0.0224954 0.0414051 0.0385312 0.0235405 0.0521581 -0.0190753 -0.00480316 -0.00445675 -0.00434111 0.00196151 -0.0622868 0.0192205 -0.0424296 -0.0254834 -0.0533824 -0.0310226 -0.0191359 -0.00773567 -0.0386718 0.00570991 -0.00426854 -0.0474306 -0.0154261 -0.0200377 -0.0159195 0.0366346 -0.069642 0.0237387 -0.0300487 -0.0326156 -0.0203589 -0.0436412 -0.0636964 -0.00946569 -0.0214215 0.00908189 0.026937 -0.0533561 0.0086168 0.0322446 -0.0232366 -0.0212555 0.015526 0.0316057 0.0493931 -0.0432324 0.0188512 -0.0629261 0.0148979 0.014215 -0.0522293 0.0318132 -0.0112718 -0.0242698 -0.0268628 -0.00638139 0.00678201 -0.0197852 -0.048156 -9.32799e-05 0.0522361 0.0443655 -0.00192659 0.0633698 0.0466301 -0.0184096 0.057445 0.0271068 0.0166834 -0.0218053 0.0128748 -0.00859463 0.0543231 0.0333234 0.0315228 0.0495459 0.000655469 -0.00467186 0.0493029 0.0225565 0.00277571 -0.00692938 0.0145104 -0.0696888 -0.0379824 -0.0576264 -0.0614655 -0.0475496 -0.048715 0.0146427 -0.00652298 -0.0561204 -0.0653037 -0.0754041 -0.029001 -0.0758517 -0.000695201 0.0357028 0.0538512 0.0256262 -0.0249124 -0.042525 0.0263516 0.0240118 0.0818111 -0.00334052 -0.0635648 0.0396245 -0.0431554 0.0305252 0.0261038 -0.0670309 -0.0748473 -0.0933557 -0.0109934 -0.0420747 -0.0943574 -0.087798 -0.0361677 -0.0234891 0.0190353 -0.0287209 -0.0168355 -0.048764 0.00588878 0.0164958 -0.00830816 0.0201974 0.0687299 0.0391727 -0.00622334 -0.057871 0.0193926 0.0294354 0.0624297 0.0526319 -0.000192108 -0.0472502 -0.0385724 0.0206857 0.0268903 0.00174833 -0.016545 0.017216 0.0617302 -0.0293038 -0.0153845 0.0368584 -0.0619141 -0.0830326 0.0215387 0.0958432 -0.0344586 -0.0640853 -0.0684101 0.0801377 0.0464097 -0.0211046 -0.0462228 -0.0699445 0.0604374 0.0345994 0.0288291 0.0235642 0.00307181 0.0273451 0.0481705 0.054114 -0.0443047 0.0317934 0.0506357 -0.0132942 -0.0429847 0.0293064 -0.00598222 -0.0147148 -0.0207464 -0.0248719 0.0175581 0.019474 -0.0519609 -0.0166404 0.00775107 0.043241 0.010635 -0.0209076 -0.00752879 -0.0094476 -0.0304269 0.0256722 -0.0211418 -0.00416106 0.0281252 0.0130172 -0.0515866 0.0146244 -0.000164234 0.0382819 0.0200205 0.045876 -0.00930711 -0.0690337 0.0602346 0.0170072 0.0449461 0.0432799 -0.00405355 -0.0597965 -0.0162258 0.0277956 -0.00397878 -0.00397053 -0.0200239 0.0343531 0.0323096 -0.0103256 0.0332703 -0.0546107 0.00538448 -0.0224469 0.00841638 0.00476747 -0.00796059 -0.0697099 -0.106232 -0.0116128 0.0763692 -0.0674002 -0.0360518 -0.0335063 0.0464983 -0.0156699 -0.0206241 -0.00859818 0.0126442 0.0264119 -0.00491235 0.0441871 -0.0303719 0.0348762 0.0316559 0.0603362 0.00241729 -0.0369716 0.0134344 0.014259 0.0253957 -0.0509207 0.00448939 -0.0481897 -0.0826595 0.0560666 -0.0243832 -0.0100872 -0.107139 -0.0725767 0.0126307 0.0383092 0.0291725 -0.0378555 -0.0065453 0.0438069 0.0770557 0.00148031 -0.055653 -0.036261 0.0727882 0.00706383 0.0498575 0.0252214 0.0359887 0.0106414 -0.0661164 -0.0531035 0.0358484 -0.0395533 0.0171781 0.0469456 -0.0381989 -0.0143655 0.0139411 0.104012 0.0890227 -0.0102578 0.0392563 -0.00826564 -0.00583359 0.0281598 -0.0362904 -0.00546535 -0.0796103 -0.0591575 -0.0305644 -0.00799798 -0.0254398 -0.0460588 -0.0349392 0.000455946 0.0137746 -0.0450612 -0.0377194 -0.0616366 -0.0288173 -0.0504882 -0.0243785 -0.0499709 0.0219077 -0.0542448 -0.0593523 0.00269587 0.0615589 0.0362894 -0.065896 -0.0317631 0.0658799 0.0144322 0.0476754 -0.0103991 0.00530665 -0.000538497 -0.0205888 -0.00270206 0.0604299 -0.032106 -0.00275551 0.0437234 0.0365666 -0.0230415 0.0433089 -0.0115747 -0.0114588 0.0782667 0.06438 0.02553 0.0410334 -0.0518837 0.00772295 0.0291548 0.00951975 -0.0179278 0.00598728 -0.00394214 -0.0110449 -0.0731368 -0.069709 -0.0259159 -0.0359491 0.0109536 -0.0675172 0.0256843 0.0272859 0.0364594 -0.00611745 -0.0634085 0.0458594 -0.0135778 0.0283496 0.0441825 -0.0495097 0.0245905 -0.0505761 -0.062371 -0.0558438 -0.0230449 -0.0286248 -0.00977979 -0.0512186 -0.0526331 0.0197601 0.0112089 -0.00318224 -0.00582341 0.00100484 -0.0492916 -0.0762911 -0.0707718 -0.0896384 -0.0858683 -0.0332403 -0.0226183 0.0397819 0.0264943 0.00881898 0.033633 -0.00835224 0.0387776 0.0160865 0.0363657 0.0272748 0.0376824 0.00946608 0.0658611 -0.0115718 0.032628 0.0128714 0.0136953 -0.0400294 0.0468733 0.050499 -0.0230785 0.0173526 -0.0208956 -0.00626106 0.0421688 -0.0345433 -0.0204949 0.0250903 0.0197256 -0.045546 -0.0531773 0.0141921 0.0956482 -0.0189447 -0.017635 -0.0169502 0.0332793 0.0099189 -0.0103309 0.0377688 -0.0196593 0.00511294 0.0279844 0.0409702 0.060843 -0.0168468 -0.0245515 0.0315168 -0.018774 -0.0110166 0.0161539 0.0520737 0.0644827 0.0300676 -0.0860392 0.0254954 -0.0150128 0.0556172 -0.0322641 -0.1078 0.0139883 -0.0156669 -0.00389425 -0.0529862 -0.0403844 0.0800018 0.0872129 0.0511732 0.0980913 0.0598767 0.0437758 0.0606653 0.03189 0.0474759 0.0466132 0.0543945 -0.0233026 0.0151503 0.0376699 0.0992467 0.0052014 0.015755 1.43563e-05 0.037189 0.0308998 -0.00849744 -0.0384894 0.0143596 -0.0541186 0.0055143 -0.0745382 -0.0550704 -0.0177415 -0.0741606 -1.54973e-06 -0.0491246 0.0308625 -0.00190811 -0.024208 0.0165447 0.0420545 0.0274039 0.018885 -0.00400143 -0.0528531 -0.0122046 0.0129958 0.0124318 -0.0391551 -0.0543792 -0.032978 -0.0396491 -0.0277676 0.0186005 -0.0332408 -0.00608629 0.0116652 0.0290461 0.0206595 0.0170827 -0.04016 -0.0403359 0.00177887 -0.0502298 0.00856408 -0.00756758 -0.0262581 -0.0442203 0.0215479 -0.0564539 0.0554124 -0.00773044 0.0276748 0.0252701 -0.0338861 -0.0167289 0.0606127 -0.0243827 0.0235943 0.0659414 -0.018828 0.0194683 0.0375278 0.0755496 0.059196 0.0277021 -0.00293212 -0.0456387 0.062644 0.048193 -0.00223973 -0.046839 0.0424086 0.00896982 0.0450836 -0.0346442 -0.0299259 0.0130348 -0.0163699 -0.00828439 -0.0581377 -0.0159094 -0.110606 -0.0942139 0.0147791 -0.0506044 -0.0239875 -0.0742368 -0.031181 0.029934 -0.0399888 0.0686844 -0.00924403 -0.0277904 0.00637273 0.0188519 0.00767873 0.0117221 -0.0100255 -0.0105064 0.00189296 -0.0346536 -0.0403537 0.029316 0.0577987 -0.0333342 -0.0663292 -0.0730994 -0.0142522 -0.0418042 0.0324585 -0.031729 -0.0519961 -0.0987987 -0.0267831 0.0469248 -0.0995047 -0.0939495 0.0159254 -0.0691157 -0.0726045 -0.00291214 -0.0157072 -0.0360065 -0.00680296 0.0262434 0.0656727 0.0736635 0.0445811 0.0431426 0.063163 0.0312146 0.0506966 0.00745327 -0.0766997 0.0142748 -0.00764146 -0.00404341 -0.0197858 0.0192701 -0.0116683 -0.0247015 -0.00822477 0.0264279 0.00213097 0.0254381 -0.0744692 -0.0554492 -0.0155688 -0.0538558 0.0333301 -0.0738457 -0.0981789 0.0358783 -0.0227299 -0.0145018 -0.0297294 0.0466308 0.0927451 -0.00320461 -0.0394552 -0.0193282 0.0979187 -0.00719794 0.0457414 -0.00965083 -0.0113372 -0.0410244 -0.0326542 -0.0246864 0.00469674 -0.0108209 -0.0226999 -0.0942893 -0.0171422 -0.0186327 0.076753 0.044487 0.0311237 0.0225083 0.00292468 0.00348708 0.0738971 0.00456515 0.0224593 0.011309 0.0086377 -0.00999309 0.0317487 0.0208996 -0.0247797 -0.0248255 0.0132893 -0.0591313 -0.030973 -0.0702286 0.0189809 0.0259641 -0.024198 -0.0251569 0.0684241 0.0781888 0.109494 -0.00286002 -0.0307227 -0.044973 0.00173121 -0.0275818 -0.058756 -0.0217955 -0.00501938 -0.0646844 -0.0429346 -0.0360385 -0.00667227 -0.0708246 -0.0176592 -0.0489785 -0.0201441 -0.0376373 -0.0175731 -0.11878 -0.11855 -0.0549748 -0.0783418 -0.013802 -0.0525133 -0.0915098 0.0666937 0.0765823 0.002171 0.0132351 0.0035854 0.0625229 0.0825936 0.00341019 0.0319366 0.0498268 0.0887825 0.0962748 0.0701192 0.052914 0.058629 0.0488714 0.0303376 -0.0384086 -0.0608502 -0.0727052 -0.0616077 -0.0647032 -0.0317127 -0.0511853 -0.126715 0.00323926 -0.00896534 0.0135225 0.0245286 -0.0401256 0.0727729 0.0457276 0.0495101 -0.0156426 0.0383613 0.0816646 0.0589162 0.00381196 -0.00169524 -0.0448783 0.00697808 -0.0512267 -0.0603396 -0.0773771 0.0351865 0.0358349 -0.0225438 -0.123431 -0.0384629 -0.0211963 0.050478 -0.0056454 0.0848213 0.0901915 0.022773 0.014616 -0.0114976 0.0565771 0.0409768 -0.0705178 -0.0347886 -0.0807177 -0.0810382 -0.0442025 0.015021 -0.00247746 0.0579993 0.0692151 0.043436 0.0274653 -0.0242435 0.0330165 0.00313613 -0.0133758 0.0537545 -0.0473044 -0.00110817 -0.107173 -0.0941689 -0.0577053 -0.0344049 0.0226603 0.0129538 -0.0796042 -0.00994512 -0.0246498 0.0825164 0.0152217 0.0124108 -0.0354243 0.0117053 -0.0374762 0.0168331 -0.0377778 -0.0176803 0.0301771 -0.0550209 -0.0108926 -0.0528246 -0.0265518 0.00628447 0.0151791 -0.0151181 -0.00986134 -0.0116212 0.0122023 0.0165275 0.069729 0.0612622 -0.0555226 -0.0390846 0.00317291 0.0310962 0.0602489 -0.0448433 -0.0436067 -0.0529623 -0.0753671 -0.0389079 -0.0424326 0.0346886 -0.015237 0.0268605 0.0546815 -0.0178122 -0.0284595 -0.0226841 0.0577609 0.0993528 0.0224447 -0.0530749 -0.0236995 -0.00066974 0.0239333 -0.0329261 0.0175696 -0.000118291 -0.00737209 -0.0646166 -0.0136841 0.0572924 0.051049 0.0439399 0.0530027 -0.0269592 0.0428687 -0.0404219 -0.0836361 -0.0588483 -0.0285896 -0.050605 -0.0416256 -0.0811368 -0.0554849 0.0396709 0.00874316 0.0191112 0.064366 0.0180849 -0.0634704 0.02653 0.0858365 0.0857462 -0.000217929 0.0191761 -0.0354416 0.00727946 0.0148202 0.0675726 0.00958017 -0.012793 -0.000591739 0.025044 -0.0899573 0.0760181 0.00211484 0.00762744 -0.0121414 -0.0359915 -0.0108113 -0.00527153 -0.0144397 0.033782 0.0289045 0.0176028 -0.00102761 -0.00179814 0.00427522 -0.0206985 -0.00837379 0.0293342 0.00266736 0.00236809 0.0668938 -0.0202691 0.0607926 0.0152845 0.0372399 0.0429949 -0.0329542 -0.0448835 -0.00463259 0.0333816 0.0337706 -0.00732059 -0.0163308 -0.0769807 0.00851527 0.0231622 0.0921281 0.00147408 -0.0936852 -0.0413706 0.0275336 0.0335624 0.00384561 -0.0864628 -0.0476911 0.0362644 0.0269166 -0.0163103 -0.0187082 -0.0168291 0.00869253 -0.0688501 0.00682758 0.0273368 -0.0516595 -0.0485276 -0.00892976 0.0168605 0.0762815 0.012717 0.0267056 -0.021528 0.0112932 0.0507126 0.0159187 0.0361007 0.0113113 0.0213332 -0.0240929 0.047325 -0.045602 -0.0450159 -0.00626005 0.0841007 0.00547315 0.0297673 -0.0100413 0.0173234 0.0380485 0.0329969 0.050196 -0.0233962 -0.0616127 0.0278168 0.00362475 0.0707646 0.0191294 -0.0343987 -0.0126416 -0.0484339 0.0418454 0.0232103 -0.0189951 0.0181824 0.074473 -0.00591726 -0.0198715 0.0355586 -0.04225 0.0329591 0.0474164 0.0562173 -0.0406801 -0.0481279 -0.0213125 0.00720331 0.00647623 0.0179028 -0.00328465 -0.0081248 0.0160422 0.0574098 -0.0403222 -0.0844545 -0.0438401 -0.0312244 0.03161 -0.0398298 -0.020874 -0.0956428 -0.0369244 0.0284445 0.0762865 0.0153372 -0.0646596 -0.0268274 -0.0113669 0.0547813 0.0778743 0.0598643 -0.0495379 -0.0203787 0.0780111 0.0362578 0.0790956 0.0602596 -0.0279367 0.0585628 0.036806 0.0615333 0.0444727 0.0169949 -0.0411143 -0.0668939 -0.00992405 -0.0695446 0.0175559 0.015811 0.0338126 -0.0561805 -0.0165034 -0.0456128 0.0407179 0.0897989 0.00480766 0.00223147 -0.0885872 0.00212876 0.0618204 0.0971924 0.0391566 -0.0236397 -0.0275243 0.0569871 0.0517177 0.0337726 -0.0250454 0.0430841 -0.0470239 0.00336242 -0.0291998 -0.0172475 0.0361792 -0.0413311 -0.0624824 -0.0236832 -0.00184706 -0.0493639 -0.0172802 -0.0233493 -0.0252838 0.000365203 -0.026689 0.0581492 0.0510531 0.0732602 0.0219591 -0.0225312 -0.0167473 0.00306728 0.0148993 -0.0423763 -0.0106753 -0.04105 0.0610805 -0.00539844 0.0394414 -0.0405518 0.0159301 0.0618966 -0.00511646 0.00652453 -0.0138046 0.0128623 -0.0280155 -0.0577816 0.000931299 0.00694234 -0.0155878 -0.0106309 -0.0219747 0.0505144 0.0555627 -0.030764 0.0346556 0.0306063 0.0109103 0.0507585 -0.011316 0.0190688 0.0433393 0.0212379 -0.0321088 0.00939448 -0.0363748 -0.0269259 -0.0245051 0.0265061 -0.043677 0.038185 -0.0274122 -0.00891079 -0.00876467 0.015394 0.0386432 0.0146034 -0.0387423 -0.0445601 0.00802903 -0.0161916 -0.0154672 -0.00552698 -0.0532511 -0.00345707 -0.031237 0.0130459 -0.0292482 0.0461354 -0.0341771 -0.000336615 -0.0130253 -0.0501252 -0.0537582 -0.0296822 0.0483208 0.0203905 -0.0255725 0.0118597 0.0356903 0.0427773 -0.020848 -0.0321861 -0.0416672 -0.0250606 0.038356 0.0286514 0.0501187 0.00434341 -0.0092872 0.0210493 0.0631692 0.0165979 0.0103117 -0.024296 0.00888656 0.0280984 0.0275323 0.0178907 -0.0204297 0.0116642 -0.0405099 0.0418764 0.00932901 0.0305751 -0.0143335 0.0227661 0.0150007 -0.0204834 0.0114158 0.0192814 0.0143396 0.0218377 -0.0259935 0.0384181 0.0278221 0.00746426 0.00979028 0.0496791 0.0353514 0.0315611 0.0486888 -0.0108972 0.0631649 -0.00726716 -0.00126897 0.00895043 -0.00135777 0.0028019 -0.0212487 0.0197563 -0.0582193 -0.0220867 0.027873 -0.0305163 0.0283182 0.00685974 0.0554556 0.00311834 0.00582657 0.0643921 -0.0115514 0.0643698 0.111227 -0.0524308 -0.0188643 0.0712209 0.0794924 -0.0467508 -0.00760134 -0.0158094 0.0451002 -0.0208704 0.0178177 -0.0603535 -0.0354708 -0.0120696 -0.0379937 -0.0507294 -0.0367723 -0.0470621 -0.0601914 -0.0555399 -0.0259779 0.0647798 -0.0799984 -0.0668921 -0.0709041 0.034697 0.108834 0.00484047 -0.103452 0.0239048 0.0854434 0.0442889 0.00178461 -0.0010253 0.0990726 -0.0154556 -0.0445436 0.00180214 0.0232563 0.0900523 0.0293468 -0.00963182 0.0499834 0.0743778 0.0508637 0.0183442 -0.0374697 0.0617084 0.024313 0.0578393 0.040857 -0.00198043 -0.0166586 0.0725611 0.0165136 0.0372908 -0.00981052 0.0220975 0.013076 -0.0112368 0.0018108 -0.0509985 0.0420472 0.00345414 -0.0426482 0.0298014 -0.0275547 -0.0508158 -0.0340752 -0.0735212 0.0164469 0.0386637 0.0891507 0.0913163 0.0652186 -0.00493067 0.0274704 0.0737622 0.0700796 0.0234245 0.0222168 -0.0585645 0.0675604 -0.0325333 0.0159838 -0.0390619 0.000484071 0.0423321 -0.00754859 -0.058241 0.00846873 -0.00449694 -0.0562086 -0.0679639 -0.104209 -0.0425926 -0.0346073 -0.0965733 -0.111127 -0.0577843 0.0493417 0.0326833 -0.0123172 -0.0410602 0.0388093 0.0393331 0.0512238 0.0410487 0.01804 0.0115925 -0.0335642 -0.00591834 -0.00457193 0.0131586 0.0565921 -0.006296 -0.0371872 0.040578 0.0807163 0.11867 0.0369491 0.0302022 -0.0639683 -0.0376468 -0.0980014 -0.0105969 0.0258038 -0.04056 -0.00143761 -0.0469199 0.0262929 0.064882 0.00769758 -0.0435745 0.0282574 0.0921782 0.00656686 -0.00736377 -0.010727 0.0312566 0.0801475 -0.0234951 -0.0196988 0.0654802 0.0712864 0.069152 -0.0261516 -0.0211204 0.0418844 0.01334 -0.0154585 0.00153889 -0.0229589 0.00805549 -0.00931759 -0.00410786 -0.0218384 6.96878e-05 0.00328631 -0.0539511 -0.102906 -0.0609196 0.0261993 -0.0945507 -0.0627964 -0.0912462 -0.0543453 -0.0524535 -0.0899746 -0.023377 0.018644 0.0101471 0.0437288 0.0111601 0.0458889 0.00907863 -0.00351695 0.0188539 -0.00327202 -0.0266093 0.0187105 -0.0157091 0.0293282 0.0446348 0.055959 0.0302421 0.035399 0.0183631 0.013715 -0.0145287 -0.0264069 -0.0678775 -0.0462503 0.0185254 -0.0352831 -0.0354906 0.0302703 0.0355793 -0.00572133 0.0333565 -0.0262184 0.0561597 -0.026419 -0.0159297 0.0111493 0.00973752 0.0260512 -0.0211037 0.00907118 -0.0341145 -0.0209724 -0.00516873 -0.0108022 0.00176606 -0.0101886 0.0133752 -0.00229173 -0.0067137 0.020793 -0.0496547 0.0451526 0.029958 0.0393042 -0.0231387 0.0410275 0.0347565 0.0449353 0.025813 0.00142384 -0.000875678 -0.0124849 0.00973219 -0.00971046 0.0269168 0.000956604 -0.0683352 -0.0221491 0.0448257 0.0191271 -0.0627788 -0.02696 0.0308685 0.0238144 0.0221676 0.0566893 0.0528838 -0.00073818 0.0371467 0.021624 -0.0323099 -0.0657222 -0.0160517 -0.021831 0.0398703 0.0314951 0.0332969 0.00548912 -0.00668696 0.0622008 0.0359393 0.0632306 -0.00198556 0.00268854 -0.00111018 -0.00778318 -0.0331879 -0.0183286 -0.0370044 -0.0315877 -0.0792139 -0.0430013 0.00682417 0.0201342 -0.0204847 0.035535 -0.0465778 -0.051868 -0.08284 -0.0365222 0.0461333 0.0576333 0.0632762 0.00115413 0.0392531 0.0859529 0.0447226 0.0201832 -0.0265507 0.046947 0.0559738 0.0374099 -0.00606581 0.0272802 -0.00606886 -0.0344856 -0.02837 -0.0386663 -0.00393021 0.0283577 0.0669549 0.0189378 0.0739252 0.0115828 -0.0221979 -0.0299062 0.0577517 0.0219606 0.0127394 0.0158571 0.0117991 0.0681187 0.0225737 0.0374081 -0.00544779 -0.0311419 -0.00700431 0.0409208 0.0945901 0.015398 -0.0549494 -0.101885 -0.0611824 0.0291389 0.052933 -0.0194352 -0.0771364 -0.0622841 0.0185989 0.0341342 0.00317486 -0.0232357 -0.0503997 -0.0718427 -0.0296852 -0.00264201 0.0334895 -0.0069837 -0.0663371 -0.0250679 0.0710469 0.0387176 -0.0850451 -0.105134 0.0556037 0.0936874 0.0535194 -0.0872218 -0.0470795 0.0861129 0.015421 0.0195399 0.0272459 -0.032555 -0.00698854 0.0264062 0.0633299 0.0420893 0.0157852 0.0177648 -0.0456134 0.0643281 0.0469854 0.0111697 0.0250753 -0.0405274 -0.0141703 0.0718429 0.0138478 0.0197226 0.00717489 -0.0339227 0.0611227 0.0321413 -0.0203759 -0.0435459 0.0271212 0.0771213 0.00425498 0.00125146 -0.0191027 -0.0429277 -0.00528615 0.0805674 0.0559033 -0.0496049 -0.0417973 0.0553114 0.0131453 0.0658381 -0.00965166 -0.0603521 -0.0663703 0.079405 -0.0133465 0.0118619 -0.0425099 0.0227303 0.0523799 -0.00698457 -0.0296125 -0.0633087 -0.0862251 -0.0830822 0.00416288 0.0417433 -0.040849 -0.0202009 -0.0784664 0.00932226 -0.00226539 0.0738094 -0.018193 -0.0801004 -0.0535447 0.0522971 0.0704593 0.00683405 -0.0783291 0.0423105 0.0441592 0.0264222 -0.0583343 -0.0484723 0.0746375 -0.00321856 -0.0387623 -0.095446 -0.0132628 -0.0563771 0.00553755 0.0370878 0.0156704 -0.105143 -0.0797968 -0.0108292 -0.00265102 0.057292 -0.0787937 -0.12107 0.0111927 0.0536185 0.0200289 -0.0154914 -0.0511346 0.040782 0.0917443 0.00212419 -0.0649603 -0.0423929 0.00419791 -0.0656146 -0.0847285 -0.0895424 -0.0422141 -0.0390553 -0.0198751 -0.0317977 0.0053391 0.00289725 0.0258457 0.0710482 0.0656735 0.0644381 0.0640267 0.0705945 0.0316617 -0.0117679 0.0190622 0.0250199 0.0479429 0.0528138 -0.0130871 0.00806284 -0.0135809 0.019951 0.0495713 0.083794 0.0947128 0.0682521 -0.0460663 -0.0512093 0.0123275 0.00311561 -0.100582 -0.0350299 -0.00359523 0.0585438 -0.0673924 -0.000682374 -0.0663132 0.0238712 0.0515955 -0.01158 0.0149615 0.035475 -0.0193949 0.0873178 0.0263157 0.0525706 0.0567218 -0.0447441 -0.0769688 0.0214912 -0.0187042 -0.0749933 -0.0393638 0.00871411 -0.0173086 0.0280051 0.0201855 0.0268273 -0.0425612 0.0615146 0.0604692 0.0359698 -0.0259849 -0.0336105 -0.0338094 -0.029017 -0.0401966 0.0373286 -0.0613018 -0.00327857 -0.0247538 0.0256682 -0.0687748 0.00933358 -0.0623243 -0.0393242 -0.0514956 0.029205 -0.0141781 0.0183274 0.0764019 0.0800356 -0.0129956 -0.0535516 0.0391867 0.0672947 0.040031 -0.0359958 -0.0178101 -0.0546874 0.0205241 0.0104998 -0.0117513 0.0141192 -0.0478318 -0.0732572 -0.0613389 0.00841125 -0.00726429 -0.00846025 -0.0525014 -0.0290296 -0.067761 0.0290422 0.0221647 -0.104422 -0.0504254 0.0126947 0.0331703 0.0169147 -0.0271436 0.0108175 -0.0799005 -0.046878 0.0192906 0.028393 0.0924553 -0.0253717 0.023416 0.0249491 0.0974676 0.0730203 0.0565986 -0.0164168 0.0836932 0.065993 -0.00604311 -0.0720673 0.0106004 -0.0116608 -0.0855596 -0.078137 -0.0123839 0.029725 -0.0196918 -0.0978431 -0.0248499 0.0224827 0.0027843 0.0736941 -0.0075878 -0.00623407 -0.00618789 -0.0454513 -0.012053 -0.00984773 0.0242451 0.022262 0.0723087 0.0884331 0.0234575 0.0108252 0.00620657 0.0903054 0.0362433 0.0956466 0.0880927 0.0272959 0.00171121 -0.0196824 0.0634405 -0.00857024 0.0451009 -0.0509266 -0.0755799 -0.0607949 -0.0581402 0.0327603 -0.0501537 -0.0570585 -0.0369725 -0.0604304 0.00348462 -0.0389962 -0.0608618 -0.0583859 -0.0675455 -0.0352967 -0.0274827 -0.052342 -0.0272788 0.0464863 -0.0210773 0.0561123 0.00390396 0.0474007 0.0312963 -0.053717 -0.000925895 0.00485632 0.0602922 0.0157889 0.0296537 0.029571 0.00856893 0.0636389 0.0125419 0.0291725 0.046926 0.0255286 0.0149958 -0.0529155 -0.0308774 0.0714633 0.0434387 0.00279872 -0.00315314 0.0291428 0.0231596 -0.00252867 0.0147871 0.0449342 0.0787446 -0.02247 0.0272579 -0.0167077 0.0214014 0.0209313 -0.0222739 0.0395405 0.0157704 -0.0330955 0.0180587 0.0722897 0.0152724 0.0614959 -0.0169077 0.0109731 0.0183554 0.0515121 0.0391229 0.0686519 0.017239 0.0379265 -0.00395749 0.025728 -0.0267611 0.000970001 -0.0287666 -0.0594397 -0.0667763 -0.000791378 -0.0120962 0.0276888 0.00460359 -0.06108 -0.0387675 -0.0165035 -0.00768352 -0.0324083 -0.0833994 -0.0288798 0.000556024 0.0247569 0.0368319 0.0183842 -0.0363463 -0.0567047 0.0577458 0.0579748 0.0318214 0.0489629 -0.0255848 0.000779286 0.0523647 0.00532928 0.066904 0.0550857 0.0066531 -0.00183837 0.0212388 0.0193399 0.0390144 -0.0794631 -0.0546043 -0.061472 -0.0773341 -0.0193824 0.0342708 -0.00907523 -0.0453466 -0.0853539 -0.0575886 -0.0285328 0.0443802 0.0589533 -0.00427275 -0.00723258 -0.00230914 0.0481807 -0.00644789 0.0536492 0.0535418 -0.029346 -0.00234291 0.0205431 0.0580083 -0.0273458 0.0424202 0.0432779 0.0530967 -0.00584684 0.0253643 0.0357306 -0.0247511 0.00463632 0.01522 -0.0306714 0.0423885 0.0350555 0.0274055 0.0255297 -0.0437046 -0.0306174 0.0569734 -0.0285309 -0.00299755 -0.0329887 -0.0360349 -0.0214192 -0.0750633 -0.0686659 -0.0652613 0.0193343 -0.0381283 -0.00792669 0.0292768 0.0531587 -0.0490768 0.0451095 -0.00791183 0.0139674 -0.00435963 -0.0518969 -0.023395 -0.0677281 0.0263855 0.0252829 -0.0844015 0.0171353 0.000379321 -0.0371903 -0.0434337 0.0348093 -0.030845 -0.00655694 0.00802458 0.041391 -0.0462248 0.0211494 0.0314752 0.00132572 0.0104368 0.0533188 -0.0452912 0.0503085 -0.0605474 0.0391183 0.0190502 0.0220572 0.0190289 0.0115012 -0.00139567 0.0651953 0.0539036 0.0342551 -0.00835677 -0.0550769 0.00100735 0.00928138 0.010853 0.0304154 -0.00450316 0.0304223 0.0665692 0.0353365 0.016634 -0.0333345 -0.0163538 0.0223971 0.0165286 0.0673599 -0.05055 0.00592981 -0.0174223 -0.0251705 0.0414274 -0.0192378 0.0410361 0.0237271 0.0103319 -0.0393221 -0.00430615 0.0101362 -0.0376743 -0.036953 -0.0386836 -0.0225672 -0.0555012 0.00298655 0.024715 0.0361438 0.0733949 -0.0459203 0.0170607 0.00554181 -0.0273877 0.0664018 -0.0582193 0.0211722 0.0101028 -0.00641732 -0.00787876 0.0030132 0.0235672 -0.0205815 -0.0133342 -0.0313373 -0.00153423 -0.0453113 0.00235394 -0.0178949 -0.00879724 -0.00940081 -0.0501793 0.0050229 -0.0433828 0.0539492 0.00415525 -0.00832366 -0.00281566 -0.0164189 0.0459608 -0.000116982 -0.0098904 0.0175295 -0.0325235 0.0440827 0.0199171 0.0114086 0.0602173 0.00733911 0.04903 0.0509147 -0.0224426 -0.0388334 0.0485565 0.0356455 0.0602742 0.0796658 0.0386563 -0.0283512 -0.00279519 -0.0349709 0.0548892 0.0690212 0.0496385 0.023133 0.0324436 0.0969656 0.0241231 -0.0386789 -0.0107629 -0.0692483 0.0057284 0.016052 -0.0221576 -0.109228 -0.1048 -0.0534931 -0.0202973 0.00986638 -0.0336708 -0.0476644 -0.0748827 0.0106256 0.0577151 0.00022855 -0.0446341 -0.0101752 -0.0342686 -0.00852639 -0.0497381 -0.0405704 -0.0749116 -0.0371038 -0.0269876 0.043484 0.0459142 0.0101272 -0.0269291 -0.0177762 0.0394557 0.100188 0.0413727 -0.0933005 -0.0505973 0.0397945 0.083881 0.0183109 -0.0169552 0.0485543 -0.055737 -0.0148091 0.0347286 0.0206601 -0.00173082 -0.0227946 0.0463532 0.0854467 0.0184921 -0.0204579 0.0357964 0.000986849 0.00376982 -0.00111275 0.0321684 -0.0605681 -0.0345773 0.0284314 -0.0098471 -0.0398438 -0.0264332 -0.0274551 0.0366011 -0.0348731 -0.0309643 0.0272556 0.0510954 0.022737 0.0245339 0.0282522 0.0500477 0.00195079 -0.0157729 -0.0165129 -0.0354294 0.0314868 -0.01244 -0.0157643 0.0555232 0.04605 0.0474799 -0.0383184 -0.00855019 0.0472262 0.0546697 0.0482726 -0.0842081 -0.0313121 0.0264034 -0.0498335 -0.0643685 -0.087902 -0.0630842 0.0296237 -0.0289599 -0.00109972 -0.0289014 0.00792876 0.0359579 0.0318111 0.0712238 0.0792845 0.0155093 0.0302961 0.0248245 0.0224765 0.130548 0.00366592 -0.104671 -0.0868636 0.057058 -0.0160133 0.0259569 -0.0370095 0.0322554 -0.0193542 -0.0311168 -0.045404 -0.0227857 0.0299794 -0.0306012 0.00589906 0.0235184 -0.0709836 -0.0313961 0.024951 0.0645532 0.0328755 -0.0561572 -0.00434561 0.0296733 0.0654874 0.0536247 -0.0206539 -0.0910216 -0.083593 0.0818178 -0.00396768 0.00141445 0.044316 0.0377809 -0.0773837 -0.0413197 -0.0425542 0.0247484 0.0258654 0.0399587 0.0835522 0.0484914 0.0322902 0.000626128 0.0292028 -0.0327331 -0.0285888 -0.045155 -0.0170651 -0.010315 -0.016847 -0.0701606 0.0288887 -0.0594697 -0.0436759 0.0185343 0.0296197 0.0618647 0.056865 0.0397841 -0.0387776 5.46274e-05 0.0187624 0.0196 4.14499e-05 -0.0780908 0.0358642 0.0296429 0.00860891 0.0131916 0.0147538 0.0670772 0.00305641 0.0172731 -0.0539647 0.0163026 0.0368549 0.075113 0.0148096 -0.0442053 0.0258066 0.0128583 -0.0286974 0.0169618 0.0224845 -0.030207 -0.0681947 -0.0383525 -0.0468901 0.0394205 -0.0173131 0.000987719 -0.0538166 0.0317914 0.0361297 0.000569414 0.0142551 0.00914031 -0.0327052 0.0349189 -0.00214526 0.0292627 0.03403 -0.00141431 -0.033888 -0.0252144 0.0144242 -0.0386443 0.0122996 -0.0591909 -0.00658331 0.0214453 -0.0366227 0.0240027 -0.00968085 0.0644465 0.0247733 -0.0433907 0.0516288 0.0346346 -0.0260261 -0.0560563 -0.0461839 -0.000769238 0.031024 -0.0242941 -0.00610234 -0.0236135 0.0239189 -0.029777 0.0303247 -0.0444696 0.0111595 0.0466274 -0.0175864 -0.0883713 -0.0190844 0.0489217 -0.0519517 -0.0479779 -0.00745193 -0.0130644 0.0315254 -0.00140288 0.0211504 -0.011478 0.0377001 -0.0154099 0.0502982 -0.0233649 -0.0115618 0.0111738 0.0422366 0.013464 -0.0215507 0.0565907 0.0328311 -0.0397314 -0.00215062 -0.0330637 -0.0279154 -0.0525856 -0.0296248 0.0324273 -0.0396787 -0.0847347 -0.0762789 -0.0160945 0.0293159 0.0383902 0.043286 0.0496318 0.0187052 0.0397331 -0.0214736 -0.0508535 0.0373835 0.0145143 0.0573837 0.00430997 0.0207926 0.0487292 0.0206494 -0.000375909 -0.113724 -0.0557429 -0.120709 -0.0628667 -0.0191828 -0.0536972 -0.0208519 -0.0756637 -0.0237239 0.0368826 0.00955468 0.0154125 0.083472 0.0883868 0.0330336 0.011849 0.0152064 0.109969 0.0131231 -0.101506 -0.0178788 0.0369037 -0.00414485 0.000267352 0.0385203 0.0363563 0.0295228 0.0220111 -0.000700024 0.0555207 -0.00411769 -0.0294757 -0.0554936 -0.0195937 -0.0120447 0.0357957 -0.0217221 -0.0558126 -0.0731835 0.0157647 -0.000764322 -0.0722948 -0.0730343 -0.0470102 0.00807299 0.0465028 -0.0136896 -0.0135944 -8.2681e-05 -0.0221011 -0.078596 -0.0859893 -0.0450131 0.0010745 0.0286493 0.000336689 -0.0201788 -0.0823438 0.019877 0.0272272 0.0529174 0.05312 0.0164305 0.058007 -0.0105773 0.0570499 -0.00284913 0.0479649 0.053204 0.00115834 -0.0352806 -0.0383925 0.0458322 -0.021891 -0.0211765 -0.0327501 -0.0712934 -0.0365445 -0.0702874 0.00393444 0.0291082 -0.0434588 0.0406045 0.0523768 0.0418913 0.0533735 -0.000266778 0.0703116 0.0906114 -0.0442099 -0.00672493 0.0378513 0.0441868 0.0757926 -0.06203 -0.0391265 -0.0589784 -0.0631273 -0.01929 -0.027776 0.0652383 0.00301172 0.0691125 0.0573069 0.029446 0.0266993 -0.0484505 -0.0756968 -0.0379952 -0.0047595 -0.0662819 -0.0872492 -0.0523416 -0.0793884 0.0678423 0.0076741 0.0166929 -0.0689088 0.0255815 0.0464286 0.0814574 0.0135745 0.0266431 0.0376976 -0.0481191 0.0540471 0.0907649 0.110084 0.0900521 -0.0290632 -0.0349277 0.0328053 -0.0548613 -0.103336 0.0189355 -0.0729471 -0.047011 -0.117566 -0.0463169 0.0699747 0.044865 0.00598828 0.00295714 0.00773789 0.0347514 0.0372486 0.0959002 0.0943428 0.0780611 -0.115919 0.000142936 -0.000792569 -0.0561529 -0.0721604 -0.0472807 0.0247014 0.0780557 -0.0225099 -0.0145122 0.0691338 -0.0192685 -0.00216622 0.00999291 0.0303378 0.0606416 -0.0388106 -0.0193377 -0.0158747 -0.0114742 -0.016489 0.0232272 -0.0111588 -0.010919 -0.0283573 0.0196886 0.0405486 0.0479898 0.0648337 0.0624388 -0.00100505 -0.00628454 0.0450349 0.0552935 -0.0214196 -0.0253378 0.0167012 0.012601 0.0299554 0.0308665 0.0216029 -0.0410561 0.00355087 0.0713292 -0.00551255 -0.0165557 0.0410711 -0.0182647 0.0203426 0.0303879 -0.0348701 -0.029203 -0.0402819 -0.0162976 0.00733407 0.00430761 -0.0536989 -0.0431739 -0.0239273 0.0134472 0.028775 -0.0486781 0.0289567 -0.0750607 0.0399197 0.054806 0.0099421 0.0279297 0.0235024 0.0182443 0.0352637 -0.0186166 -0.00665412 0.0229938 0.0439947 0.0619196 -0.0572458 -0.0481567 -0.00130261 -0.0349476 -0.0161612 0.00643151 0.0400324 -0.0385487 -0.0420003 0.0614358 0.0505681 -0.00175097 -0.0430302 -0.0107576 0.0664016 0.0433453 0.043326 0.0230837 -0.0500776 0.0736024 -0.0616428 0.0217889 0.0310252 -0.0494478 -0.0202096 0.00437698 0.0194623 0.0599344 0.00516363 0.0146472 0.0101612 -0.0138381 0.0646289 0.0165878 -0.0223577 -0.00498564 0.0358685 0.0468099 -0.0316365 -0.036807 0.0340437 -0.0487967 0.0257331 -0.042595 -0.0322309 0.0430401 0.0249269 0.0437262 -0.00403457 -0.0207889 0.059428 0.0181655 0.0264141 0.10441 -0.0157448 -0.000824183 -0.049902 0.0141144 0.0214435 -0.0419753 -0.0107466 -0.0429742 0.00943721 0.0429974 0.030388 0.0251634 0.0317361 -0.0330214 0.0381205 -0.0127379 0.068023 -0.0189101 -0.00859713 0.0706808 0.0294431 -0.00116907 -0.0205828 -0.0274648 -0.00952747 0.085227 0.0774016 -0.016036 0.015987 0.0823794 0.060559 0.0753287 -0.00322684 -0.02298 0.06038 0.0920473 0.0772537 -0.140408 -0.140506 -0.0582547 -0.0646524 0.0165219 -0.0185128 -0.111541 -0.121159 -0.0511997 -0.0645938 0.0624238 -0.0212367 -0.0815433 -0.039083 -0.0472689 0.039707 0.0466051 -0.070283 -0.032431 -0.114631 0.00905439 0.0603521 -0.0226495 -0.0495932 -0.0685681 0.0909974 0.0721337 0.023166 0.026784 -0.0289515 -0.0402668 0.0352627 -0.0263266 -0.008459 -0.020218 -0.0315599 0.0349252 -0.0099671 0.0157033 0.0482089 -0.0497656 0.0412144 0.0749264 -0.00330848 0.032481 -0.0259114 0.0533844 0.0779588 0.0358336 0.0283592 -0.0834226 -0.0642888 -0.0106781 -0.0145293 0.0480654 -0.0102375 -0.0670593 -0.0027406 -0.0666185 0.00491762 -0.0471602 0.0184549 -0.0384137 0.0658667 0.043507 0.00629017 0.00073097 0.017692 0.0286131 0.0267401 -0.081645 -0.0502905 0.0145924 0.0256644 0.0370398 -0.0150703 -0.0908417 -0.0911949 -0.0536124 -0.0313352 -0.0067054 0.00498167 -0.0211983 0.00978008 -0.0265271 0.0218547 -0.0261841 0.00294796 -0.0754656 -0.0498724 0.0629728 0.0584509 -0.0426718 -0.0861459 -0.060624 0.0904089 0.0741658 0.0776332 -0.0161391 -0.0461063 0.0370706 0.0215339 0.062412 0.11366 0.0794154 -0.0371842 -0.0303515 -0.0428959 -0.0612648 -0.0192581 0.00248764 0.0766811 0.0302653 -0.0325472 0.0149443 0.0640983 0.0761869 -0.0359857 -0.0879303 -0.0445749 0.113775 0.0441574 0.0316432 -0.00954708 -0.0417196 0.0684531 0.0202295 0.0781262 0.105677 0.0482432 -0.0242656 -0.070864 -0.00336257 -0.0104168 -0.0403326 -0.0224098 0.0350607 -0.0270155 -0.0256154 -0.0690306 0.0006806 0.0202983 -0.0605203 -0.104707 -0.00454784 -0.0375206 0.00521833 0.0367187 0.0393857 -0.0562347 -0.0308836 -0.0176045 0.0603902 -0.00386307 -0.0256703 -0.0313633 -0.0318059 0.012412 0.0203612 0.0233719 0.0289208 0.0132396 0.0261392 -0.00678133 0.0433183 0.0792432 0.0281317 -0.00407111 0.0521944 0.0281752 0.0132488 -0.0758368 -0.0186129 -0.0107879 0.0543462 0.0408128 -0.0416878 -0.0500447 0.0465385 -0.0377104 -0.0546712 0.0214376 -0.00874028 -0.0402301 -0.0384319 -0.0439965 0.0216664 -0.0596316 0.0180691 -0.0072518 -0.0375895 -0.0290254 0.0123203 -0.0409392 0.0055229 -0.0694622 0.0228589 -0.0393096 -0.0194623 -0.0408342 -0.00208797 0.0620938 -0.0145185 0.0449014 0.0421322 -0.0379133 0.0212856 0.0178335 -0.0277249 0.0274754 0.042389 0.018781 0.0194903 -0.00802385 -0.0477807 -0.0317179 0.00334423 -0.0201313 -0.0670819 -0.026626 -0.000554478 0.0591437 0.0668298 -0.0226503 0.00634415 -0.0298265 0.0119725 -0.00197121 0.0274354 -0.00746275 0.0658218 0.0287584 0.0717785 0.0188272 -0.0168137 -0.0152842 0.00210027 0.0480804 0.0515915 0.0488475 0.0216404 -0.0708547 -0.0442839 0.0112549 0.0407437 0.0312645 -0.0884796 -0.0194317 0.0146292 -0.0600008 -0.0439982 -0.0324014 -0.0350707 0.0360525 0.000543567 -0.05859 -0.059717 -0.0724633 0.0406164 0.0230188 -0.0165868 -0.014891 0.0736555 0.0635839 0.0405113 0.072137 -0.00846737 0.0268125 -0.0168272 0.0769829 0.0365826 -0.0393123 -0.0574755 -0.0752354 0.00287523 0.0133011 0.0253469 -0.0455844 -0.0237162 0.0163933 -0.0335395 6.49607e-05 -0.0665115 -0.00373307 -0.0398475 -0.00123278 -0.0486961 -0.00672019 -0.0192557 0.0393495 0.0613082 -0.0481668 0.0421162 -0.0323918 0.0505112 0.0276596 -0.0287076 -0.0437491 0.0080374 -0.0297256 0.0394503 0.0359297 0.0461261 0.0705409 -0.0324491 0.00345718 0.0340356 -0.0403209 0.0198932 0.00916563 0.0232356 -0.0907427 -0.0182944 0.062813 0.00127337 0.0530234 0.0046677 0.0311976 0.00582447 -0.0292197 0.00134545 0.000992646 -0.0248316 0.0347376 0.0136742 -0.0709031 0.0172545 -0.0457348 -0.0125837 -0.0626231 -0.00655169 0.0568082 -0.0505146 0.0477895 -0.0565666 0.0406712 -0.00254243 -0.0363159 -0.0603342 0.044815 -0.00387452 -0.060267 0.00667316 -0.0379551 -0.0401278 0.0472958 0.0106406 -0.0315482 -0.0236059 -0.015854 -0.015229 0.000771434 -0.0117583 -0.00966025 -0.0111324 -0.0138261 0.0137656 -0.0318427 0.0193889 -0.0318033 -0.033284 0.0181479 -0.0116811 0.00905233 -0.0354173 -0.0437354 -0.00124477 -0.0323643 -0.0421093 0.0351547 -0.00343429 0.0250051 -0.0503748 0.0104454 -0.0452851 -0.0128537 0.0332901 0.00108374 0.034469 0.00704847 -0.0254973 -0.0376509 0.0235896 0.00506595 -0.0376648 0.0556807 -0.0136166 0.0145608 0.0439708 -0.0434634 0.0326636 0.0542499 -0.0134719 -0.0178978 0.0145434 -0.0253661 0.000516139 -0.0463021 -0.0113288 -0.00741276 -0.0149643 -0.0256396 0.0489263 0.0150977 0.0195884 -0.0270784 0.0132828 -0.0173317 0.0215767 -0.0338064 0.0080064 0.0557068 0.0443431 0.0655069 0.0148243 0.00124016 0.0619988 0.0511176 0.0250684 0.0061331 -0.0423705 -0.0300957 0.0521571 -0.0353994 -0.0424884 -0.00956133 -0.0414207 0.0559766 -0.00558628 0.0665842 -0.0612944 -0.0423282 -0.0203826 0.0163902 0.00494794 -0.033246 0.0046285 -0.0204809 0.0418477 0.0480382 -0.0189461 0.0164657 0.00272643 0.0370354 -0.0137859 -0.020444 0.0320862 0.05136 -0.0478592 -0.0252939 0.0382815 0.0419541 0.0634618 -0.0235472 -0.0210744 -0.0247557 -0.0343157 0.0228896 0.0112012 -0.00702294 -0.00615474 0.00863872 0.0343966 -0.0605874 0.016788 0.035913 -0.000902215 -0.0279057 0.00747701 -0.00680231 0.0284641 -0.0541038 -0.0566543 -0.0409291 -0.00385343 0.0368734 0.0418207 -0.0165314 -0.0736195 -0.0268559 -0.019514 -0.0123781 0.0474245 -0.0368661 0.0247242 0.0289291 0.0607015 0.0570402 0.0165571 -0.0547939 -0.0383224 0.00364348 0.0668667 0.0319724 0.0144842 0.00273437 -0.00837921 0.0249905 -0.0307389 -0.0617059 0.0455763 0.0442867 0.0594811 0.012485 -0.00369597 -0.0525654 -0.00420943 0.0305683 0.00359258 -0.0108113 0.008597 0.0226567 0.00267991 0.0473062 -0.0147779 -0.000648814 0.0255027 -0.0277893 -0.0249003 0.0508648 0.0379631 0.0347172 0.0211704 -0.0158112 0.0543201 -0.0639051 -0.0496269 0.040394 0.0309621 -0.0325804 0.00802394 0.0301456 0.0185824 0.0537015 -0.0222401 -0.0550268 -0.0461492 -0.0269287 -0.0616752 -0.0560901 -0.0300074 0.0176257 0.0371912 0.0271998 0.00354042 -0.00538712 -0.0483866 -0.0160433 -0.0502391 0.0350103 0.0272236 0.000662359 0.0512279 -0.0840099 0.0476642 -0.036061 0.0290406 0.0117938 -0.0158306 0.00959924 0.0172557 0.0762944 0.0861473 -0.0612951 -0.0287455 0.0235071 -0.017629 0.0334902 0.0501737 -0.051708 -0.0523399 0.0125855 -0.0294556 0.00833635 0.00932346 -0.0064488 0.0412393 0.000216321 -0.0179623 -0.0124207 0.0609172 0.0529853 0.0520081 -0.0404382 -0.0131041 0.000503319 0.0307284 0.0278052 -0.0643012 -0.0399242 -0.0457409 -0.0548678 0.0176658 -0.0228954 -0.0382266 -0.0151573 0.0354082 0.0601287 -0.0570513 -0.00900103 -0.0454593 0.0462388 -0.0505116 0.016967 0.0287568 0.0483063 0.0446916 0.0163384 0.0629782 0.0393903 -0.028699 0.00782137 -0.0224882 0.00416635 -0.00246683 -0.000616681 0.0220672 -0.0160808 0.044922 0.00742093 0.00347654 -0.0414578 0.00963752 -0.047459 0.00238193 -0.0203017 -0.00354111 -0.00341453 0.000500098 0.032538 0.0139232 -0.0268379 -0.0666919 -0.0326813 -0.00815 0.066522 -0.0152438 0.0357063 0.0703938 0.0387886 0.0122986 0.028185 0.00965724 -0.0195636 -0.00447108 0.00703788 -0.0110675 0.0137661 0.0267856 -0.0163767 -0.00252833 0.00780702 -0.00667887 -0.0123891 0.0146138 -0.0223169 0.0796305 0.00125811 -0.0120401 0.0437251 0.0450033 0.0392573 0.0517953 -0.0118944 0.0297506 0.0497283 0.0389142 0.00895883 0.0553774 0.0502519 0.103088 0.0419802 0.0618686 0.0547465 0.0550687 0.0244611 0.0137924 0.0238403 0.0541354 0.0357747 0.0324175 0.010427 -0.0350433 0.0589316 -0.0487462 -0.0438397 -0.0110171 0.0191351 -0.0454154 0.0160451 0.0544476 -0.0351026 0.00448215 -0.0152196 -0.0016859 -0.0819383 -0.100399 -0.0374074 0.0062895 -0.0656259 -0.0227906 -0.0528249 0.0188816 -0.015569 -0.0598689 -0.0656743 0.0120157 0.0471464 -0.0896894 0.00704886 0.0105904 -0.026 0.00504349 -0.00308574 0.0169425 0.0150251 0.0406378 -0.0390225 -0.0164241 0.0285805 -0.00786854 -0.0289597 -0.0178012 -0.0246657 0.0306363 -0.0129615 -0.0696917 -0.0573995 0.0422028 0.0297085 0.0197066 -0.022798 -0.0137911 -0.0212096 -0.00228545 -0.063171 -0.0206251 0.0265028 0.0174843 -0.0382562 0.0639943 0.0829345 -0.00628313 -0.0354796 0.0309201 0.0377613 -0.0247885 -0.0308752 -0.0369541 0.0286472 0.0389914 -0.0723887 -0.0346374 0.0243249 0.0533925 0.0525078 0.042897 -0.0339177 0.045027 0.00801188 0.00417942 0.0405319 0.00655561 0.0373526 -0.00508043 0.0309612 0.0577149 0.0438109 0.0448591 0.0682136 0.053884 0.0910667 0.0104367 0.0656476 0.0396315 0.00794507 0.00235928 0.0262585 0.0226513 0.0610023 0.0186931 -0.0393194 0.0126644 0.0720653 -0.120318 -0.0324072 0.0612695 -0.0922112 -0.0774044 -0.0613954 -0.033892 -0.0755253 -0.0586761 -0.017714 -0.0624685 -0.0837078 -0.0356955 0.0291278 -0.0536894 -0.0438625 -0.0259505 -0.104043 -0.033432 0.0299582 0.0152871 0.044274 -0.0053949 -0.0653052 -0.0230253 0.0404246 -0.00657652 0.0202812 0.0126409 0.00932483 -0.0203578 0.0120867 0.0519628 0.0470932 0.0474581 0.0604036 -0.0509009 -0.0536995 0.0815356 -0.0104348 -0.0889703 -0.00708327 -0.00443084 -0.0313357 0.00558155 0.0116194 -0.0958017 -0.0779219 0.0875115 0.0644756 -0.00700663 0.0498416 0.0528887 -0.0468258 -0.0333806 0.0262944 -0.0305133 0.0124344 -0.0265506 -0.0326868 0.0618124 -0.0565369 0.0689512 0.0742245 0.0297863 0.0417364 -0.0095154 -0.0769646 0.0049623 0.0101683 -0.0413483 0.0173091 -0.0667061 -0.0320621 0.0114119 -0.0619432 -0.105812 -0.0260795 -0.0345755 -0.0829062 -0.0144485 -0.0306167 0.0178466 0.0205779 -0.0245779 -0.0257257 -0.0603548 0.000823951 0.0247128 -0.0170207 0.00811017 -0.0172887 -0.067357 -0.0346749 -0.0388484 -0.0721983 0.0409229 0.0455863 0.0137617 0.046442 0.0036621 0.030295 0.0681084 0.0746108 0.0393348 0.00489095 -0.0608651 -0.0242839 -0.00209048 0.0140892 -0.00940354 -0.00399862 0.0300776 -0.0322059 0.0246553 -0.032138 0.045937 0.0136749 -0.0535117 -0.044495 0.00435721 0.0150972 0.0276872 0.00138485 0.00890191 0.0465778 0.0636673 0.0199963 0.068031 -0.0252646 -0.0346918 -0.00478638 0.0111944 0.00913441 -0.00516222 -0.0514834 -0.0396276 0.023615 0.0249765 0.0297291 -0.0548933 0.00922049 0.0350942 0.0312882 -0.0411552 0.0268653 -0.0483022 0.0390374 0.0142286 -0.0541471 0.0364576 -0.0292345 -0.0253973 -0.0206681 0.0296266 0.0113965 -0.0191384 -0.00880708 0.0305867 -0.0425929 0.0062416 0.0181874 -0.00303064 -0.00849061 -0.0178277 0.0425777 -0.0524812 0.0640538 -0.0673288 0.0388946 -0.00789663 -0.0176539 0.0344226 -0.0416336 -0.0256733 0.00569163 -0.00302912 0.00472272 0.0240936 0.0149257 0.0194399 -0.0127046 -0.00817319 -0.0499729 0.0148693 -0.0486663 0.00291073 -0.0926398 -0.0136941 -0.0539572 0.0903382 -0.0563751 -0.00518372 0.0037695 -0.0192787 -0.0839592 -0.00955526 -0.07646 0.00016402 -0.0491543 0.0294085 0.035971 0.0015646 0.0676076 0.00141272 -0.0200183 -0.0191159 0.0106829 -0.0253791 0.0318394 0.00373666 0.0158698 0.00803345 0.0361109 0.0158043 0.0297573 0.0363743 0.0198996 -0.000115462 0.0218785 0.0551249 0.0253877 -0.0352756 0.0166003 -0.0206847 0.0466619 0.0224208 -0.0448292 0.00453098 -0.100432 0.000344148 -0.0095443 0.0301343 -0.023928 -0.0354832 -0.034736 -0.0557797 -0.0203012 0.0554119 0.00295687 -0.00956174 -0.0787788 -0.0309867 -0.00120681 -0.00270532 -0.0684067 0.0259146 0.00877992 -0.0209698 -0.0282678 -0.0127409 -0.0259761 0.00983045 0.00843985 -0.0106665 -0.0331101 0.0433439 0.0131049 0.0237171 0.021922 -0.0388334 0.0262725 0.042142 -0.0243087 -0.0387407 0.0813985 0.0525133 0.0486907 0.0609657 0.0381224 0.019009 0.0470116 -0.00820097 -0.112678 -0.0677142 0.0316663 -0.0550191 -0.0627702 -0.00227139 -0.0174012 -0.00791399 -0.0232759 0.030428 0.0521089 0.054747 0.0582121 -0.0240643 0.0250515 0.0209608 0.00349183 0.0446435 0.0315056 0.0490756 -0.0280113 0.0179151 0.0126564 -0.0357233 -0.0540655 0.0368903 -0.0119175 -0.000280313 -0.0258548 0.0326532 0.00575503 0.0245596 0.0583736 -0.0133707 -0.0381946 -0.0250242 0.0709478 0.0243493 0.038046 0.0674638 0.0448219 0.000848076 -0.0299056 0.0562867 0.00308834 0.034251 0.00211544 0.0622347 -0.0558972 -0.0104292 0.0913349 -0.010286 -0.0723564 -0.00399825 -0.0289131 -0.0582424 -0.0843034 0.0145074 0.016911 -0.00422696 0.0716618 -0.000603489 0.0283249 0.0659886 0.0441627 -0.0156548 -0.0110692 0.00183846 0.00460301 0.0201776 0.0845152 0.0366265 -0.00898635 0.0154486 -0.0106389 -0.0410801 0.0599997 -0.040132 0.0238174 0.0274785 0.0367925 0.085648 0.0303703 -0.058584 -0.0724654 -0.044762 0.0411822 0.0191042 0.0428383 -0.0151776 0.0280044 0.00861959 0.051642 0.00778726 0.0485998 -0.0293101 0.0248484 0.0148763 -0.091841 -0.0122706 -0.0293 0.0434784 -0.0797433 -0.0198714 -0.0798172 -0.0497169 -0.0693588 0.0455256 -0.00219506 -0.0141641 0.0146142 0.0405832 -0.0400527 -0.0385713 -0.0548262 -0.0225665 0.0188029 -0.0538066 0.053822 0.0570375 0.0653007 -0.0254392 0.0269644 -0.0373458 -0.0476026 0.0542061 0.0067079 0.00193309 -0.0132496 -0.0300451 0.0373043 -0.03253 -0.0353986 -0.0647426 -0.00298884 -0.0409046 -0.00392255 -0.0439724 -0.030539 -0.0319481 -0.0304013 -0.00266982 0.0154975 -0.0100482 0.0306373 0.0520397 -0.0305641 -0.0687529 -0.0151403 -0.0474491 0.00242321 -0.0212641 0.0496385 0.0658239 0.0385057 -0.0309504 -0.0167833 -0.0389588 0.0350294 -0.0645229 -0.0682369 0.00676426 -0.0469816 -0.050397 -0.0603565 0.00636639 -0.0320607 -0.0519473 -0.071852 0.0512225 -0.0573434 0.0120579 -0.0688688 -0.0239501 0.0228582 0.0815824 -0.00971474 -0.0692596 -0.0255746 -0.019044 -0.0552761 0.00244358 -0.0141757 0.000591903 -0.00457005 -0.0320623 -0.033898 0.0173525 0.0398789 0.00870864 0.0824332 0.059559 0.00382982 -0.0693634 -0.0403886 0.00316678 0.0233958 -0.00407963 -0.126875 0.0835654 0.0299754 0.00157822 -0.0171357 -0.00716031 -0.0157914 -0.018501 -0.0189073 0.017304 -0.00811841 -0.0491752 0.0885476 0.0368025 0.00644347 -0.0231405 0.0553611 0.0308099 0.064465 -0.00943151 0.0494162 0.0147016 -0.0104446 0.0229417 0.0266977 0.020329 0.0328933 0.0084981 0.0245083 -0.015604 -0.0183169 0.139875 -0.0372815 0.0617237 0.00960199 -0.0402256 -0.0211274 0.0208613 -0.044094 0.0034185 0.0507483 0.00220083 0.0367704 -0.0160155 0.00653238 -0.022609 0.026748 0.00156506 0.0312401 0.0142264 -0.0189842 -0.00734771 0.0108781 0.0563946 -0.0360236 0.0220206 -0.0125271 -0.0131047 -0.0300745 -0.0381781 0.0356689 0.0235933 -0.0208648 -0.0355665 -0.0376417 -0.0347237 0.0137506 0.0363951 0.0173971 -0.0284438 -0.0211291 0.0383121 -0.0179249 0.0277704 -0.0178676 0.00272844 0.0486223 0.024725 -0.0511305 -0.0260206 0.0655817 -0.00107052 0.0358822 0.0667943 -0.0467508 0.0133681 -0.0511515 -0.0445586 0.0396531 -0.0172505 -0.0162612 -0.0115291 -0.0427122 -0.0164169 0.0183863 0.0206857 0.00326398 -0.0205767 -0.0343931 -0.00375645 -0.0305483 -0.0333169 0.02492 0.0257768 0.0229037 0.0237617 -0.00480758 -0.0375743 -0.0499449 -0.0498372 -0.00677451 0.0164247 0.00195498 0.0230114 -0.0415116 0.00427196 -0.00304827 -0.039281 0.022885 -0.00938558 0.0513298 0.0330246 0.0531108 0.00794491 -0.00248085 0.0270519 0.0741994 0.0512171 0.0277493 -0.0405731 0.0562628 -0.0578297 -0.00671495 0.0157253 -0.0100506 -0.0363086 0.0173364 0.0347693 -0.0248332 -0.073418 -0.0514466 -0.0426495 -0.0430599 -0.014522 -0.0317465 -0.00349334 -0.0474013 0.052656 0.0244488 -0.00406136 0.0245664 0.0673021 -0.0241554 -0.0698899 -0.00942322 0.0227681 0.061377 -0.00457913 0.0428144 0.0193486 0.0688793 0.0437928 -0.0208653 -0.0115037 0.0139975 0.0196916 -0.0490423 -0.081151 -0.0470059 0.018747 0.0883663 0.02966 0.0317597 0.0621684 -0.00489707 0.0161994 0.0124442 -0.0171974 -0.0244181 -0.0263818 -0.0366246 0.0282411 0.00961162 0.0288122 0.00386054 0.0236424 -0.022382 0.0139801 -0.0493955 0.0465686 -0.00621489 -0.0327007 0.0499999 0.0183289 -0.00900407 -0.0330889 -0.083368 0.0178736 0.00212427 -0.0554027 -0.0902615 0.0498047 -0.000229922 -0.00177274 -0.00266706 0.021212 0.0267928 -0.0111469 -0.0371776 0.00800513 -0.010916 0.0151751 0.0275629 -0.026068 0.001838 0.0105618 -0.014837 -0.0387807 -0.00727233 -0.00889673 0.0226122 0.0221727 -0.0153747 0.0244673 -0.0181407 -0.0353719 -0.00592147 -0.0508179 -0.0360883 0.0452119 -0.0400228 0.0307229 -0.0401192 0.000183058 0.00790821 -0.0231633 -0.0114168 0.0257508 -0.0441714 -0.0456197 0.0493308 -0.0104131 0.0237021 0.0361701 -0.0460887 -0.0462821 0.00452884 -0.0141716 -0.0218477 0.0404012 0.0325522 -0.00335483 -0.00480077 -0.0507913 -0.0112575 0.000176254 0.0284374 0.00287996 -0.010884 0.0215154 0.0255532 -0.0693316 0.0149956 0.00155958 0.0287605 0.00612938 -0.011213 0.0221599 0.055741 0.0590191 -0.0124683 -0.0218283 0.0239445 0.0238985 0.0367147 0.0255928 0.00735941 -0.0282928 -0.0292877 -0.036991 0.0229727 -0.00954623 -0.00842359 -0.0253125 0.0122135 -0.0206499 -0.0362518 0.0350947 -0.0648669 -0.0200738 -0.0328824 0.0312261 0.0158355 0.0130337 -0.0513662 0.0343203 -0.070573 0.0283856 -0.0535393 0.067855 0.033049 0.0534608 -0.0337297 0.0419992 0.0492103 0.0393523 -0.00479722 0.0279361 -0.0264907 0.0188322 -0.007158 0.024086 0.0354869 -0.0306928 -0.0222556 0.00914235 0.0421502 -0.0258221 0.0190768 0.00180024 0.0398235 0.0494725 0.09287 0.0326707 -0.0387608 0.0541407 -0.0322324 -0.0180946 0.0435549 0.0343989 -0.0580595 -0.0407236 0.0188277 0.0383833 0.0144753 -0.0149034 -0.0568434 -0.00813074 -0.0221563 -0.0577978 -0.0277711 -0.0261168 0.0281088 -0.0325485 -0.0512502 -0.0284594 -0.0110451 -0.032999 -0.0169108 0.031675 -0.048377 0.021386 -0.00401236 0.0132176 0.0424842 -0.000497395 -0.0240014 -0.0326659 0.0338323 -0.0323125 0.0211722 0.0318834 -0.0240935 0.0348631 -0.0226555 -0.0207413 0.0397896 -0.0316171 0.00879769 -0.00496378 -0.0292493 -0.0317406 -0.0401549 -0.0169358 -0.0275804 -0.0359762 -0.0346708 0.0102703 -0.0339501 0.0214505 -0.0105554 0.0407403 0.0529266 -0.0319811 -0.0654499 -0.0214817 -0.035928 -0.0352563 0.0261527 -0.0301356 0.0084142 0.0171646 -0.0575065 -0.0234664 0.00136085 -0.0171998 -0.00323484 0.0245865 -0.0411955 -0.0707363 0.0566474 -0.0228513 -0.0457069 0.012443 0.0149457 -0.040521 0.0021858 0.00358241 0.0306844 -0.0448832 -0.0641476 -0.00782377 -0.0483683 -0.00301698 -0.00737381 -0.0423852 0.0605524 0.0223252 -0.0391329 0.0114965 -0.0549762 -0.0290637 -0.0080262 0.0285006 0.0480767 0.0162968 -0.0279108 0.0108343 0.000561176 0.0275896 -0.00520672 0.0560452 -0.028362 -0.0151677 0.0057449 0.0201087 -0.00095341 -0.0113366 -0.0130414 0.00774597 -0.0422502 -0.0215861 -0.0675063 0.0333141 0.0522336 0.0586989 0.0327154 -0.00547485 -0.00313122 -0.0196892 -0.0107242 -0.112954 0.0106938 0.00150423 0.0288225 0.029837 0.0141334 0.0785658 -0.0160781 0.0172462 0.0421143 -0.00679779 0.0332691 0.0556232 -0.000452771 0.000286517 -0.0338473 -0.0383467 -0.0205076 0.0350671 -0.0348435 0.0258958 0.0332841 -0.0383595 -0.042026 0.0201839 -0.00862466 -0.0389503 0.0216292 -0.00996401 -0.017189 0.0724923 0.0266277 -0.0580621 0.0454203 0.00401284 -0.0348053 -0.0550968 0.0362532 0.0265072 0.00278162 -0.041183 -0.0374518 -0.0329316 -0.00119039 -0.0427847 -0.0683184 -0.0864512 0.0313611 -0.0253073 -0.0504357 -0.00225103 -0.0460376 -0.0278658 0.0398007 -0.0769375 -0.0130608 0.0273151 -0.0933663 -0.0489021 0.0103521 0.0556526 0.0243122 0.0686856 -0.0421592 0.072926 -0.0524519 0.0482703 -0.0188519 0.00627059 0.00256933 0.0647847 0.033426 -0.0202537 -0.021415 0.0197431 0.0169254 0.0597387 0.00121728 0.026948 0.0593865 -0.0100844 -0.0166609 -0.020781 0.0421327 0.0569123 0.056316 -0.0194203 0.0129112 0.0512831 -0.0671365 -0.0555312 -0.0132068 0.0168753 0.0192602 0.0261095 -0.0290318 -0.0468329 0.0320602 0.0080906 0.0325744 -0.0121915 0.0500765 -0.0115288 -0.0393978 -0.0177175 0.00620006 -0.0115363 0.0257727 0.00759193 0.0229193 -0.0564238 0.00325757 -0.0155229 -0.0413209 0.00216356 0.0424156 0.0755291 0.0278585 -0.0445102 0.0533441 -0.00990024 0.0192633 0.0264176 -0.00345557 0.0277578 -0.00392411 0.0289692 0.00606236 0.00158913 -0.000517665 0.012946 -0.0165635 0.034865 -0.0152619 0.0366164 -0.0417165 0.0203963 -0.0391081 -0.00109819 -0.0267023 0.000184019 -0.0109981 -0.00950317 0.0438731 0.00858193 0.0509428 0.0120229 -0.0359291 -0.0101716 0.0014665 0.00376263 -0.00166934 0.0437092 0.0362313 -0.0324748 -0.0199997 0.0382005 -0.0388342 0.000125942 0.0282891 0.0253769 -0.0483619 0.0431047 -0.0243173 0.00493845 -0.0354597 0.0313855 -0.0685213 -0.00231136 -0.00819462 0.0481544 -0.0392793 0.0416657 -0.0480542 0.0311553 0.0316063 0.0424609 0.0326611 0.0305275 0.000545295 0.0151065 0.0206356 0.0185011 -0.0318613 -0.0373748 -0.0155684 0.0550126 -0.0136248 0.01506 -0.0289348 -0.0157649 0.0128914 0.0102228 0.0248387 0.0290043 -0.000862191 0.030325 -0.0558862 0.00882896 0.0438699 -0.020129 -0.0548241 0.0181538 0.0578176 -0.036332 -0.0447374 0.0121989 0.0259949 -0.0100049 0.0294143 0.037736 -0.0340656 -0.0300457 -0.052165 0.0231719 0.048596 0.00790427 0.0112065 0.0351951 0.0552748 -0.022022 -0.0290866 0.0269115 -0.0279688 -0.0473876 -0.0327225 -0.0185887 0.000300539 -0.0070791 0.0114963 0.0185464 -0.00306894 -0.0525235 0.00561775 0.0314344 -0.00961712 -0.00359581 0.0649929 -0.00487801 0.00865904 -0.0202033 -0.000555428 -0.0151509 0.0034801 -0.0211905 -0.0116358 -0.0198463 -0.00127876 0.0401774 0.023585 0.00105825 -0.0308618 0.0500795 0.0429851 -0.00245201 0.0378058 0.0134993 -0.0378278 0.0195196 0.0160468 -0.0536915 -0.0500114 0.0253737 0.0170167 0.0333869 -0.0108903 0.023885 0.0137596 0.00483213 0.00345954 0.02386 -0.0282782 -0.0352198 0.028912 0.0569247 0.00976338 0.0427536 -0.0402351 0.0261747 -0.0385918 -0.0150976 -0.0388547 -0.012399 0.036075 -0.0203487 0.0122851 0.00708488 0.0446439 0.0359243 0.0290373 0.0118684 0.0468538 0.0150389 0.00744888 0.0120359 0.0538067 0.0682072 0.0400379 -0.0160808 0.0269506 -0.0322223 -0.0592368 -0.00113124 -0.0365688 0.0223853 -0.0323094 0.0241804 0.00728946 -0.0436855 -0.00590706 0.0694911 0.0503851 0.0383122 -0.0363908 0.0372782 0.00715597 0.0931663 0.012328 0.0149505 -0.0432302 0.0132222 -0.00808638 -0.0553667 -0.00725476 -0.0650178 -0.0140865 -0.0420748 -0.0537182 -0.0144238 0.0326072 -0.0131823 0.0414171 0.011209 -0.0277292 -0.0105094 -0.0100264 -0.0214177 0.0297656 0.014532 -0.0230881 -0.0656765 -0.04327 0.0309489 0.030641 0.0152301 -0.0508794 -0.0489836 -0.0603438 -0.0190655 -0.0117776 -0.0335836 0.0396161 0.0499571 0.0445351 -0.031066 -0.0269799 -0.0198143 0.03059 -0.0373541 -0.00414408 -0.0149648 -0.0116615 -0.0334859 -0.0209296 -0.00155554 -0.0719288 -0.000929489 -0.0154551 -0.0231489 -0.0088749 -0.0395761 -0.0135521 -0.0194871 0.0296516 -0.00769487 -0.0560842 -0.0249616 -0.0293821 -0.0157798 0.0582288 -0.0159668 0.00534216 0.0154312 -0.0015692 0.0469745 -0.0278085 0.01002 -0.00971983 0.022265 0.00353599 0.0510775 0.000300105 0.0419929 -0.0423319 -0.0214059 -0.0319904 -0.0178062 0.0150498 0.0393301 -0.0509178 0.0426212 -0.00167069 -0.0265342 -0.0200589 -0.0301349 0.0324821 -0.00208246 -0.0312889 0.0621522 -0.0199596 0.0117883 0.0158677 0.00442305 0.00895847 -0.00578622 0.00723001 -0.0504804 -0.0364644 -0.00965501 -0.0107707 -0.0390109 -0.0183085 0.0444789 -0.0104091 0.0137017 0.0152907 -0.0212309 -0.018466 -0.0018054 -0.0480732 0.0235581 0.0225795 -0.00248696 -0.0296818 0.0475343 0.0256802 0.019082 0.0269701 -0.0308047 0.0285924 -0.0406848 0.0370445 -0.0135903 -0.0231923 -0.00503813 -0.0236372 -0.0313155 0.0233923 -0.0083273 0.0492354 0.00392977 0.0557411 0.03534 0.0264251 0.0454811 -0.0127408 -0.0170072 -0.0237336 -0.041369 0.0101196 0.0126979 -0.0265251 -0.0246938 0.0184384 0.0331107 0.0265984 -0.0312998 0.0279426 -0.0232268 -0.0145751 -0.043713 0.0417658 -0.045634 -0.0283912 0.00985652 0.0672741 0.00414805 -0.0217811 -0.0232645 0.00650452 -0.0132799 0.0628005 0.0522442 -0.0343341 0.018701 -0.0417244 0.0208254 0.0499623 0.023246 0.0226705 0.0436611 0.0433293 -0.0245161 -0.0459443 -0.0024296 0.0346742 0.0459535 -0.0087878 -0.0366227 -0.0233969 0.0400871 0.00688995 0.0537104 -0.0250597 0.00284604 -0.0356155 -0.0226517 -0.00549609 0.0117258 -0.0452264 -0.0263521 -0.0412961 0.0171816 0.0296256 0.0545475 -0.00261735 0.00688724 -0.0620142 0.0283786 0.0260364 0.0239209 0.000306257 -0.0162087 0.0357322 0.00645504 0.0443046 0.0576745 0.0093833 0.0553786 -0.0324247 0.0197373 -0.0368439 -0.0370409 -0.0396696 0.000955501 0.0191422 -0.0439799 -0.0209712 -0.0432613 -0.0314896 -0.0363962 -0.0249906 0.0323364 -0.0607923 0.0456178 0.0234974 0.00918966 -0.0109855 0.0359995 0.0192027 -0.00465676 0.00569318 0.0496434 0.0146028 0.0674878 0.0445989 0.0168719 -0.0115604 -0.023227 0.0349662 -0.057743 0.00601069 -0.02077 0.013732 -0.0399248 -0.054783 -0.0633954 0.0196097 -0.0294453 0.036535 0.0261856 -0.0200621 -0.0202039 -0.0317445 0.0196894 0.0422108 0.00137972 0.0157707 -0.0149059 0.0294966 0.0312055 0.0189961 -0.0406403 0.000834229 0.0398313 0.013119 0.0511464 -0.0475432 -0.0335351 0.027537 -0.00699629 0.0105295 -0.0133562 0.0100567 -0.0317265 -0.0038636 -0.0235901 -0.00282669 -0.0465438 0.00406335 0.0653874 0.0331175 -0.00465066 -0.0431592 -0.0370287 0.0520004 -0.0229836 0.00111349 0.0154667 -0.0373835 0.00670769 -0.0244327 0.00563085 0.0492352 0.030356 0.0215948 0.00339224 0.0241919 -0.00505424 0.00282766 -0.0290337 -0.00614243 -0.0570572 -0.0168416 -0.0145524 -0.0329305 -0.022057 0.0263327 -0.0337947 -0.0426084 -0.018825 0.00475529 0.0171772 -0.030629 -0.0144669 0.0369817 0.038628 -0.00974917 -0.035407 0.0226982 0.0482005 -0.0180505 -0.042275 0.0144671 -0.035031 -0.0118871 -0.0160328 -0.0226014 0.042422 -0.0486243 -0.0487914 -0.0195809 -0.00445113 0.0229907 -0.0106491 -0.01607 -0.0381943 0.0447354 -0.00875516 0.00687049 0.0374097 0.0390853 -0.018992 -0.0108922 -0.0443296 0.0044178 0.0116767 0.0510137 0.00891104 0.037582 -0.0161096 0.0146582 0.00704423 0.00395703 0.000998636 0.0249325 -0.0358772 -0.0104422 -0.0430856 0.0218718 -0.0170172 -0.0259669 -0.0443542 0.0116951 